<?xml version="1.0"?>
<opencv_storage>
<cascade>
  <stageType>BOOST</stageType>
  <featureType>HAAR</featureType>
  <height>48</height>
  <width>48</width>
  <stageParams>
    <boostType>GAB</boostType>
    <minHitRate>9.9500000476837158e-01</minHitRate>
    <maxFalseAlarm>5.0000000000000000e-01</maxFalseAlarm>
    <weightTrimRate>9.4999999999999996e-01</weightTrimRate>
    <maxDepth>1</maxDepth>
    <maxWeakCount>100</maxWeakCount></stageParams>
  <featureParams>
    <maxCatCount>0</maxCatCount>
    <featSize>1</featSize>
    <mode>ALL</mode></featureParams>
  <stageNum>18</stageNum>
  <stages>
    <!-- stage 0 -->
    <_>
      <maxWeakCount>5</maxWeakCount>
      <stageThreshold>-1.7974445223808289e-01</stageThreshold>
      <weakClassifiers>
        <_>
          <internalNodes>
            0 -1 228 9.5413029193878174e-03</internalNodes>
          <leafValues>
            -2.6555183529853821e-01 9.3271028995513916e-01</leafValues></_>
        <_>
          <internalNodes>
            0 -1 248 3.5625451710075140e-04</internalNodes>
          <leafValues>
            -2.0206888020038605e-01 9.6194368600845337e-01</leafValues></_>
        <_>
          <internalNodes>
            0 -1 200 6.5150158479809761e-04</internalNodes>
          <leafValues>
            -2.6913368701934814e-01 9.7798758745193481e-01</leafValues></_>
        <_>
          <internalNodes>
            0 -1 205 6.2824622727930546e-04</internalNodes>
          <leafValues>
            -3.4415081143379211e-01 9.7161138057708740e-01</leafValues></_>
        <_>
          <internalNodes>
            0 -1 233 8.1643240991979837e-04</internalNodes>
          <leafValues>
            -2.6285183429718018e-01 9.7924172878265381e-01</leafValues></_></weakClassifiers></_>
    <!-- stage 1 -->
    <_>
      <maxWeakCount>6</maxWeakCount>
      <stageThreshold>-4.4788777828216553e-01</stageThreshold>
      <weakClassifiers>
        <_>
          <internalNodes>
            0 -1 185 -1.5685778111219406e-02</internalNodes>
          <leafValues>
            8.5714286565780640e-01 -1.6864295303821564e-01</leafValues></_>
        <_>
          <internalNodes>
            0 -1 76 -9.7801014780998230e-03</internalNodes>
          <leafValues>
            8.5298198461532593e-01 -1.9995214045047760e-01</leafValues></_>
        <_>
          <internalNodes>
            0 -1 46 1.8461195752024651e-02</internalNodes>
          <leafValues>
            -2.6415336132049561e-01 7.7701616287231445e-01</leafValues></_>
        <_>
          <internalNodes>
            0 -1 240 -1.7418801784515381e-02</internalNodes>
          <leafValues>
            8.0575931072235107e-01 -3.0737060308456421e-01</leafValues></_>
        <_>
          <internalNodes>
            0 -1 290 1.2904480099678040e-02</internalNodes>
          <leafValues>
            -2.9285252094268799e-01 7.2462254762649536e-01</leafValues></_>
        <_>
          <internalNodes>
            0 -1 210 -3.8882619701325893e-03</internalNodes>
          <leafValues>
            8.9460295438766479e-01 -2.3239125311374664e-01</leafValues></_></weakClassifiers></_>
    <!-- stage 2 -->
    <_>
      <maxWeakCount>9</maxWeakCount>
      <stageThreshold>-6.0175144672393799e-01</stageThreshold>
      <weakClassifiers>
        <_>
          <internalNodes>
            0 -1 147 2.4470821022987366e-02</internalNodes>
          <leafValues>
            -6.1790667474269867e-02 7.9128140211105347e-01</leafValues></_>
        <_>
          <internalNodes>
            0 -1 101 -9.3382168561220169e-03</internalNodes>
          <leafValues>
            7.7439850568771362e-01 -1.4918068051338196e-01</leafValues></_>
        <_>
          <internalNodes>
            0 -1 145 9.7316643223166466e-04</internalNodes>
          <leafValues>
            -1.6642472147941589e-01 8.7781751155853271e-01</leafValues></_>
        <_>
          <internalNodes>
            0 -1 187 -1.0824716882780194e-03</internalNodes>
          <leafValues>
            8.8952898979187012e-01 -2.1519170701503754e-01</leafValues></_>
        <_>
          <internalNodes>
            0 -1 175 1.6925379168242216e-03</internalNodes>
          <leafValues>
            -1.6005219519138336e-01 7.8824633359909058e-01</leafValues></_>
        <_>
          <internalNodes>
            0 -1 229 8.9095532894134521e-03</internalNodes>
          <leafValues>
            -1.8872693181037903e-01 7.4887716770172119e-01</leafValues></_>
        <_>
          <internalNodes>
            0 -1 226 8.5610558744519949e-04</internalNodes>
          <leafValues>
            -1.8008881807327271e-01 7.8015941381454468e-01</leafValues></_>
        <_>
          <internalNodes>
            0 -1 222 -3.6621484905481339e-03</internalNodes>
          <leafValues>
            8.9313340187072754e-01 -1.2644711136817932e-01</leafValues></_>
        <_>
          <internalNodes>
            0 -1 291 1.2711152434349060e-02</internalNodes>
          <leafValues>
            -2.0692062377929688e-01 6.6571575403213501e-01</leafValues></_></weakClassifiers></_>
    <!-- stage 3 -->
    <_>
      <maxWeakCount>13</maxWeakCount>
      <stageThreshold>-5.6679803133010864e-01</stageThreshold>
      <weakClassifiers>
        <_>
          <internalNodes>
            0 -1 159 6.6902837716042995e-03</internalNodes>
          <leafValues>
            9.7715117037296295e-02 8.6193674802780151e-01</leafValues></_>
        <_>
          <internalNodes>
            0 -1 223 1.6652727499604225e-03</internalNodes>
          <leafValues>
            -1.1580909043550491e-01 7.5315523147583008e-01</leafValues></_>
        <_>
          <internalNodes>
            0 -1 144 2.0232774317264557e-02</internalNodes>
          <leafValues>
            -1.5540660917758942e-01 8.5325324535369873e-01</leafValues></_>
        <_>
          <internalNodes>
            0 -1 149 1.9194770604372025e-02</internalNodes>
          <leafValues>
            -1.7083618044853210e-01 8.3606368303298950e-01</leafValues></_>
        <_>
          <internalNodes>
            0 -1 254 3.8817296735942364e-03</internalNodes>
          <leafValues>
            -1.1738979816436768e-01 7.7880841493606567e-01</leafValues></_>
        <_>
          <internalNodes>
            0 -1 172 4.5118327252566814e-03</internalNodes>
          <leafValues>
            -1.2274079769849777e-01 9.2285805940628052e-01</leafValues></_>
        <_>
          <internalNodes>
            0 -1 172 -3.3321944065392017e-03</internalNodes>
          <leafValues>
            7.8793209791183472e-01 -1.3728664815425873e-01</leafValues></_>
        <_>
          <internalNodes>
            0 -1 26 -2.5508403778076172e-03</internalNodes>
          <leafValues>
            -6.0690641403198242e-01 2.3760969936847687e-01</leafValues></_>
        <_>
          <internalNodes>
            0 -1 31 4.8770941793918610e-03</internalNodes>
          <leafValues>
            1.6360898315906525e-01 -7.0243179798126221e-01</leafValues></_>
        <_>
          <internalNodes>
            0 -1 104 1.3297868892550468e-02</internalNodes>
          <leafValues>
            -1.8893165886402130e-01 7.3795491456985474e-01</leafValues></_>
        <_>
          <internalNodes>
            0 -1 115 -5.6756557896733284e-03</internalNodes>
          <leafValues>
            7.6943486928939819e-01 -1.2854807078838348e-01</leafValues></_>
        <_>
          <internalNodes>
            0 -1 250 1.0284025920554996e-03</internalNodes>
          <leafValues>
            -1.3429522514343262e-01 7.8752833604812622e-01</leafValues></_>
        <_>
          <internalNodes>
            0 -1 17 -1.6358729917556047e-03</internalNodes>
          <leafValues>
            -6.5812486410140991e-01 2.0551222562789917e-01</leafValues></_></weakClassifiers></_>
    <!-- stage 4 -->
    <_>
      <maxWeakCount>14</maxWeakCount>
      <stageThreshold>-8.5384905338287354e-01</stageThreshold>
      <weakClassifiers>
        <_>
          <internalNodes>
            0 -1 55 3.8020744919776917e-01</internalNodes>
          <leafValues>
            3.1645570416003466e-03 9.0863788127899170e-01</leafValues></_>
        <_>
          <internalNodes>
            0 -1 217 -2.9383758082985878e-02</internalNodes>
          <leafValues>
            6.3982743024826050e-01 -1.5444314479827881e-01</leafValues></_>
        <_>
          <internalNodes>
            0 -1 33 6.4847564697265625e-01</internalNodes>
          <leafValues>
            -1.0381912440061569e-01 9.5712220668792725e-01</leafValues></_>
        <_>
          <internalNodes>
            0 -1 67 -1.6503864899277687e-02</internalNodes>
          <leafValues>
            6.1229974031448364e-01 -2.3567704856395721e-01</leafValues></_>
        <_>
          <internalNodes>
            0 -1 39 1.3234715908765793e-02</internalNodes>
          <leafValues>
            1.9565352797508240e-01 -6.0511559247970581e-01</leafValues></_>
        <_>
          <internalNodes>
            0 -1 19 -6.9771064445376396e-03</internalNodes>
          <leafValues>
            -6.4400160312652588e-01 1.8687711656093597e-01</leafValues></_>
        <_>
          <internalNodes>
            0 -1 257 -3.8738690782338381e-03</internalNodes>
          <leafValues>
            5.9785079956054688e-01 -1.9647552073001862e-01</leafValues></_>
        <_>
          <internalNodes>
            0 -1 247 3.3636069856584072e-03</internalNodes>
          <leafValues>
            -1.4010247588157654e-01 7.1026766300201416e-01</leafValues></_>
        <_>
          <internalNodes>
            0 -1 127 1.4951167395338416e-03</internalNodes>
          <leafValues>
            -1.2584775686264038e-01 6.8647539615631104e-01</leafValues></_>
        <_>
          <internalNodes>
            0 -1 24 2.9753325507044792e-02</internalNodes>
          <leafValues>
            1.8224555253982544e-01 -5.5667167901992798e-01</leafValues></_>
        <_>
          <internalNodes>
            0 -1 238 1.0450057452544570e-03</internalNodes>
          <leafValues>
            2.4152947962284088e-01 -4.2006626725196838e-01</leafValues></_>
        <_>
          <internalNodes>
            0 -1 176 -1.8487004563212395e-03</internalNodes>
          <leafValues>
            4.0213564038276672e-01 -2.4702578783035278e-01</leafValues></_>
        <_>
          <internalNodes>
            0 -1 183 6.2011479167267680e-04</internalNodes>
          <leafValues>
            -2.3916083574295044e-01 4.2688894271850586e-01</leafValues></_>
        <_>
          <internalNodes>
            0 -1 165 -5.0007384270429611e-03</internalNodes>
          <leafValues>
            7.2334080934524536e-01 -1.3101182878017426e-01</leafValues></_></weakClassifiers></_>
    <!-- stage 5 -->
    <_>
      <maxWeakCount>13</maxWeakCount>
      <stageThreshold>-7.0460718870162964e-01</stageThreshold>
      <weakClassifiers>
        <_>
          <internalNodes>
            0 -1 117 7.9228952527046204e-02</internalNodes>
          <leafValues>
            -5.4704593494534492e-03 8.7264150381088257e-01</leafValues></_>
        <_>
          <internalNodes>
            0 -1 61 -4.9959421157836914e-03</internalNodes>
          <leafValues>
            -5.4786431789398193e-01 3.4395316243171692e-01</leafValues></_>
        <_>
          <internalNodes>
            0 -1 289 -4.4284485280513763e-02</internalNodes>
          <leafValues>
            6.4062857627868652e-01 -2.1194835007190704e-01</leafValues></_>
        <_>
          <internalNodes>
            0 -1 313 -7.4216024950146675e-03</internalNodes>
          <leafValues>
            -7.1208441257476807e-01 1.7863570153713226e-01</leafValues></_>
        <_>
          <internalNodes>
            0 -1 53 7.4497044086456299e-02</internalNodes>
          <leafValues>
            -2.0386190712451935e-01 6.7759412527084351e-01</leafValues></_>
        <_>
          <internalNodes>
            0 -1 77 -4.1575110517442226e-03</internalNodes>
          <leafValues>
            -6.9566577672958374e-01 1.9847930967807770e-01</leafValues></_>
        <_>
          <internalNodes>
            0 -1 306 1.3770503923296928e-02</internalNodes>
          <leafValues>
            -2.6172840595245361e-01 5.0335460901260376e-01</leafValues></_>
        <_>
          <internalNodes>
            0 -1 216 2.2947355173528194e-03</internalNodes>
          <leafValues>
            2.2509561479091644e-01 -5.0930005311965942e-01</leafValues></_>
        <_>
          <internalNodes>
            0 -1 148 1.2515445705503225e-03</internalNodes>
          <leafValues>
            -2.1353380382061005e-01 5.6373602151870728e-01</leafValues></_>
        <_>
          <internalNodes>
            0 -1 237 -1.7335703596472740e-03</internalNodes>
          <leafValues>
            -5.3175020217895508e-01 2.3426517844200134e-01</leafValues></_>
        <_>
          <internalNodes>
            0 -1 225 6.6901452373713255e-04</internalNodes>
          <leafValues>
            -1.5309572219848633e-01 7.0926147699356079e-01</leafValues></_>
        <_>
          <internalNodes>
            0 -1 208 1.8120700260624290e-03</internalNodes>
          <leafValues>
            -1.6155345737934113e-01 6.6332232952117920e-01</leafValues></_>
        <_>
          <internalNodes>
            0 -1 319 -1.8682484515011311e-03</internalNodes>
          <leafValues>
            -5.6131023168563843e-01 2.2030104696750641e-01</leafValues></_></weakClassifiers></_>
    <!-- stage 6 -->
    <_>
      <maxWeakCount>12</maxWeakCount>
      <stageThreshold>-7.4597585201263428e-01</stageThreshold>
      <weakClassifiers>
        <_>
          <internalNodes>
            0 -1 288 5.0372552126646042e-02</internalNodes>
          <leafValues>
            -9.3788065016269684e-02 8.6008232831954956e-01</leafValues></_>
        <_>
          <internalNodes>
            0 -1 94 -1.1028703302145004e-03</internalNodes>
          <leafValues>
            -7.1622639894485474e-01 3.5998162627220154e-01</leafValues></_>
        <_>
          <internalNodes>
            0 -1 198 -4.1616916656494141e-02</internalNodes>
          <leafValues>
            6.8370658159255981e-01 -2.7225974202156067e-01</leafValues></_>
        <_>
          <internalNodes>
            0 -1 29 -3.0470013618469238e-01</internalNodes>
          <leafValues>
            8.5319608449935913e-01 -2.4490435421466827e-01</leafValues></_>
        <_>
          <internalNodes>
            0 -1 143 -2.9089361429214478e-02</internalNodes>
          <leafValues>
            6.3585704565048218e-01 -3.4905922412872314e-01</leafValues></_>
        <_>
          <internalNodes>
            0 -1 41 2.0349737256765366e-02</internalNodes>
          <leafValues>
            -1.5652756392955780e-01 7.5160473585128784e-01</leafValues></_>
        <_>
          <internalNodes>
            0 -1 20 9.3014746904373169e-02</internalNodes>
          <leafValues>
            -1.5903502702713013e-01 7.2216248512268066e-01</leafValues></_>
        <_>
          <internalNodes>
            0 -1 5 -4.7323457896709442e-02</internalNodes>
          <leafValues>
            6.9012939929962158e-01 -2.0812527835369110e-01</leafValues></_>
        <_>
          <internalNodes>
            0 -1 173 -2.5685611180961132e-03</internalNodes>
          <leafValues>
            7.0575684309005737e-01 -1.4149047434329987e-01</leafValues></_>
        <_>
          <internalNodes>
            0 -1 326 -3.4996359609067440e-03</internalNodes>
          <leafValues>
            -6.6878813505172729e-01 1.8213120102882385e-01</leafValues></_>
        <_>
          <internalNodes>
            0 -1 223 1.3006809167563915e-03</internalNodes>
          <leafValues>
            -2.1688994765281677e-01 5.1270622014999390e-01</leafValues></_>
        <_>
          <internalNodes>
            0 -1 150 4.1808895766735077e-03</internalNodes>
          <leafValues>
            -1.1530297994613647e-01 7.6108545064926147e-01</leafValues></_></weakClassifiers></_>
    <!-- stage 7 -->
    <_>
      <maxWeakCount>12</maxWeakCount>
      <stageThreshold>-8.2266080379486084e-01</stageThreshold>
      <weakClassifiers>
        <_>
          <internalNodes>
            0 -1 302 8.2759365439414978e-02</internalNodes>
          <leafValues>
            -1.4348786324262619e-02 8.7422358989715576e-01</leafValues></_>
        <_>
          <internalNodes>
            0 -1 318 3.1041549518704414e-03</internalNodes>
          <leafValues>
            3.1274047493934631e-01 -5.9249824285507202e-01</leafValues></_>
        <_>
          <internalNodes>
            0 -1 102 -8.3050765097141266e-02</internalNodes>
          <leafValues>
            7.3071950674057007e-01 -2.0088610053062439e-01</leafValues></_>
        <_>
          <internalNodes>
            0 -1 63 4.6547420322895050e-02</internalNodes>
          <leafValues>
            -3.1829416751861572e-01 5.8947986364364624e-01</leafValues></_>
        <_>
          <internalNodes>
            0 -1 105 -9.7452355548739433e-03</internalNodes>
          <leafValues>
            5.2832239866256714e-01 -2.3149007558822632e-01</leafValues></_>
        <_>
          <internalNodes>
            0 -1 182 6.9631286896765232e-03</internalNodes>
          <leafValues>
            -1.3145034015178680e-01 8.2837414741516113e-01</leafValues></_>
        <_>
          <internalNodes>
            0 -1 203 9.1688735410571098e-03</internalNodes>
          <leafValues>
            -1.8850684165954590e-01 5.9962439537048340e-01</leafValues></_>
        <_>
          <internalNodes>
            0 -1 324 -4.3314592912793159e-03</internalNodes>
          <leafValues>
            -7.4014145135879517e-01 1.7949873208999634e-01</leafValues></_>
        <_>
          <internalNodes>
            0 -1 84 -1.6777241602540016e-02</internalNodes>
          <leafValues>
            7.2076559066772461e-01 -1.6155409812927246e-01</leafValues></_>
        <_>
          <internalNodes>
            0 -1 83 8.2634679973125458e-02</internalNodes>
          <leafValues>
            -1.5133988857269287e-01 6.7782688140869141e-01</leafValues></_>
        <_>
          <internalNodes>
            0 -1 23 -1.2510412931442261e-01</internalNodes>
          <leafValues>
            6.4158219099044800e-01 -1.5902765095233917e-01</leafValues></_>
        <_>
          <internalNodes>
            0 -1 273 -1.4150446280837059e-02</internalNodes>
          <leafValues>
            4.4957885146141052e-01 -2.3278270661830902e-01</leafValues></_></weakClassifiers></_>
    <!-- stage 8 -->
    <_>
      <maxWeakCount>14</maxWeakCount>
      <stageThreshold>-1.0614888668060303e+00</stageThreshold>
      <weakClassifiers>
        <_>
          <internalNodes>
            0 -1 30 -2.3211727384477854e-03</internalNodes>
          <leafValues>
            -4.3137255311012268e-01 5.0965249538421631e-01</leafValues></_>
        <_>
          <internalNodes>
            0 -1 157 4.5093242079019547e-02</internalNodes>
          <leafValues>
            -1.7040017247200012e-01 7.5940555334091187e-01</leafValues></_>
        <_>
          <internalNodes>
            0 -1 49 -2.3938291706144810e-03</internalNodes>
          <leafValues>
            -6.8343162536621094e-01 2.0724378526210785e-01</leafValues></_>
        <_>
          <internalNodes>
            0 -1 89 -2.5450240820646286e-02</internalNodes>
          <leafValues>
            6.7004615068435669e-01 -2.0099435746669769e-01</leafValues></_>
        <_>
          <internalNodes>
            0 -1 131 8.5211452096700668e-03</internalNodes>
          <leafValues>
            -1.6125148534774780e-01 7.3273098468780518e-01</leafValues></_>
        <_>
          <internalNodes>
            0 -1 133 -3.8223482668399811e-02</internalNodes>
          <leafValues>
            -5.7560175657272339e-01 1.9032751023769379e-01</leafValues></_>
        <_>
          <internalNodes>
            0 -1 245 5.9475968591868877e-03</internalNodes>
          <leafValues>
            -1.2859831750392914e-01 8.0451899766921997e-01</leafValues></_>
        <_>
          <internalNodes>
            0 -1 190 -2.1167756058275700e-03</internalNodes>
          <leafValues>
            7.7311706542968750e-01 -1.2033407390117645e-01</leafValues></_>
        <_>
          <internalNodes>
            0 -1 332 -1.2121289968490601e-02</internalNodes>
          <leafValues>
            -7.5009530782699585e-01 1.5043169260025024e-01</leafValues></_>
        <_>
          <internalNodes>
            0 -1 333 7.0515498518943787e-03</internalNodes>
          <leafValues>
            1.4272041618824005e-01 -6.1493849754333496e-01</leafValues></_>
        <_>
          <internalNodes>
            0 -1 139 1.6913814470171928e-03</internalNodes>
          <leafValues>
            -1.5929289162158966e-01 6.1348009109497070e-01</leafValues></_>
        <_>
          <internalNodes>
            0 -1 323 -2.2604251280426979e-03</internalNodes>
          <leafValues>
            -6.2287873029708862e-01 1.7120073735713959e-01</leafValues></_>
        <_>
          <internalNodes>
            0 -1 259 4.8005785793066025e-03</internalNodes>
          <leafValues>
            -1.4871557056903839e-01 7.1867746114730835e-01</leafValues></_>
        <_>
          <internalNodes>
            0 -1 227 -7.5801308266818523e-03</internalNodes>
          <leafValues>
            -5.6372326612472534e-01 1.8010960519313812e-01</leafValues></_></weakClassifiers></_>
    <!-- stage 9 -->
    <_>
      <maxWeakCount>19</maxWeakCount>
      <stageThreshold>-1.1734133958816528e+00</stageThreshold>
      <weakClassifiers>
        <_>
          <internalNodes>
            0 -1 45 3.9582604169845581e-01</internalNodes>
          <leafValues>
            1.3465988636016846e-01 8.6155486106872559e-01</leafValues></_>
        <_>
          <internalNodes>
            0 -1 75 1.3644859194755554e-02</internalNodes>
          <leafValues>
            -1.6880938410758972e-01 5.4888564348220825e-01</leafValues></_>
        <_>
          <internalNodes>
            0 -1 124 1.2866180390119553e-02</internalNodes>
          <leafValues>
            -2.9800713062286377e-01 4.4545561075210571e-01</leafValues></_>
        <_>
          <internalNodes>
            0 -1 1 -2.0643807947635651e-02</internalNodes>
          <leafValues>
            -5.8441865444183350e-01 1.6331934928894043e-01</leafValues></_>
        <_>
          <internalNodes>
            0 -1 264 -9.0615106746554375e-03</internalNodes>
          <leafValues>
            3.5655128955841064e-01 -2.4946343898773193e-01</leafValues></_>
        <_>
          <internalNodes>
            0 -1 113 5.7263122871518135e-03</internalNodes>
          <leafValues>
            -1.3446122407913208e-01 6.3350564241409302e-01</leafValues></_>
        <_>
          <internalNodes>
            0 -1 221 4.9740307033061981e-02</internalNodes>
          <leafValues>
            -1.1242907494306564e-01 7.0420485734939575e-01</leafValues></_>
        <_>
          <internalNodes>
            0 -1 151 1.6006252262741327e-03</internalNodes>
          <leafValues>
            -1.6418710350990295e-01 4.9862501025199890e-01</leafValues></_>
        <_>
          <internalNodes>
            0 -1 174 1.6772067174315453e-03</internalNodes>
          <leafValues>
            -1.4188215136528015e-01 5.5626595020294189e-01</leafValues></_>
        <_>
          <internalNodes>
            0 -1 171 -1.6583368182182312e-02</internalNodes>
          <leafValues>
            4.5787915587425232e-01 -1.9468533992767334e-01</leafValues></_>
        <_>
          <internalNodes>
            0 -1 90 -4.6846255660057068e-02</internalNodes>
          <leafValues>
            6.1647045612335205e-01 -1.2853272259235382e-01</leafValues></_>
        <_>
          <internalNodes>
            0 -1 136 2.0528743043541908e-03</internalNodes>
          <leafValues>
            -1.2527479231357574e-01 6.2614750862121582e-01</leafValues></_>
        <_>
          <internalNodes>
            0 -1 244 3.6957063712179661e-03</internalNodes>
          <leafValues>
            -1.0611320286989212e-01 7.3003602027893066e-01</leafValues></_>
        <_>
          <internalNodes>
            0 -1 331 -4.9640834331512451e-03</internalNodes>
          <leafValues>
            -6.8556338548660278e-01 1.2801446020603180e-01</leafValues></_>
        <_>
          <internalNodes>
            0 -1 114 7.9751072917133570e-04</internalNodes>
          <leafValues>
            -1.4145088195800781e-01 5.6519788503646851e-01</leafValues></_>
        <_>
          <internalNodes>
            0 -1 13 3.8914356846362352e-03</internalNodes>
          <leafValues>
            1.1934396624565125e-01 -6.8987166881561279e-01</leafValues></_>
        <_>
          <internalNodes>
            0 -1 284 -1.7596749588847160e-02</internalNodes>
          <leafValues>
            5.1634722948074341e-01 -1.5084050595760345e-01</leafValues></_>
        <_>
          <internalNodes>
            0 -1 309 -1.2938857078552246e-02</internalNodes>
          <leafValues>
            4.4451081752777100e-01 -1.8895338475704193e-01</leafValues></_>
        <_>
          <internalNodes>
            0 -1 100 6.7109882365912199e-04</internalNodes>
          <leafValues>
            -1.5712344646453857e-01 4.8536217212677002e-01</leafValues></_></weakClassifiers></_>
    <!-- stage 10 -->
    <_>
      <maxWeakCount>21</maxWeakCount>
      <stageThreshold>-8.6293911933898926e-01</stageThreshold>
      <weakClassifiers>
        <_>
          <internalNodes>
            0 -1 10 -8.2546528428792953e-03</internalNodes>
          <leafValues>
            -4.0631580352783203e-01 4.9257144331932068e-01</leafValues></_>
        <_>
          <internalNodes>
            0 -1 34 6.0267531871795654e-01</internalNodes>
          <leafValues>
            -1.1816725134849548e-01 7.0108997821807861e-01</leafValues></_>
        <_>
          <internalNodes>
            0 -1 107 1.9305014982819557e-02</internalNodes>
          <leafValues>
            -1.7088954150676727e-01 5.0514459609985352e-01</leafValues></_>
        <_>
          <internalNodes>
            0 -1 93 9.2597380280494690e-03</internalNodes>
          <leafValues>
            -2.3696461319923401e-01 4.2242118716239929e-01</leafValues></_>
        <_>
          <internalNodes>
            0 -1 167 1.7069259192794561e-03</internalNodes>
          <leafValues>
            -1.4312052726745605e-01 6.9918662309646606e-01</leafValues></_>
        <_>
          <internalNodes>
            0 -1 193 -4.4313715770840645e-03</internalNodes>
          <leafValues>
            7.6775807142257690e-01 -8.9696928858757019e-02</leafValues></_>
        <_>
          <internalNodes>
            0 -1 59 -1.6274459660053253e-02</internalNodes>
          <leafValues>
            -7.1969419717788696e-01 1.3754469156265259e-01</leafValues></_>
        <_>
          <internalNodes>
            0 -1 234 -4.9602491781115532e-03</internalNodes>
          <leafValues>
            6.9253557920455933e-01 -1.2955217063426971e-01</leafValues></_>
        <_>
          <internalNodes>
            0 -1 249 3.8678434211760759e-03</internalNodes>
          <leafValues>
            -1.5715843439102173e-01 5.8442711830139160e-01</leafValues></_>
        <_>
          <internalNodes>
            0 -1 300 5.2695395424962044e-03</internalNodes>
          <leafValues>
            1.3886523246765137e-01 -6.3612461090087891e-01</leafValues></_>
        <_>
          <internalNodes>
            0 -1 308 -5.4772696457803249e-03</internalNodes>
          <leafValues>
            -6.4861428737640381e-01 1.1864302307367325e-01</leafValues></_>
        <_>
          <internalNodes>
            0 -1 110 4.0279870154336095e-04</internalNodes>
          <leafValues>
            -1.4222215116024017e-01 6.5482658147811890e-01</leafValues></_>
        <_>
          <internalNodes>
            0 -1 224 5.2559692412614822e-03</internalNodes>
          <leafValues>
            -9.0223737061023712e-02 7.5347173213958740e-01</leafValues></_>
        <_>
          <internalNodes>
            0 -1 241 1.3513287529349327e-02</internalNodes>
          <leafValues>
            -8.5582308471202850e-02 7.4642521142959595e-01</leafValues></_>
        <_>
          <internalNodes>
            0 -1 146 2.1809141617268324e-03</internalNodes>
          <leafValues>
            -1.8299214541912079e-01 4.0886270999908447e-01</leafValues></_>
        <_>
          <internalNodes>
            0 -1 21 -1.0749098146334291e-03</internalNodes>
          <leafValues>
            -4.3975117802619934e-01 1.6300925612449646e-01</leafValues></_>
        <_>
          <internalNodes>
            0 -1 141 -1.0011984035372734e-02</internalNodes>
          <leafValues>
            5.6749093532562256e-01 -1.1627981811761856e-01</leafValues></_>
        <_>
          <internalNodes>
            0 -1 120 4.1715445695444942e-04</internalNodes>
          <leafValues>
            -1.3514494895935059e-01 4.7890177369117737e-01</leafValues></_>
        <_>
          <internalNodes>
            0 -1 279 -7.0925652980804443e-03</internalNodes>
          <leafValues>
            5.9449899196624756e-01 -1.0731375217437744e-01</leafValues></_>
        <_>
          <internalNodes>
            0 -1 251 -3.1480364501476288e-02</internalNodes>
          <leafValues>
            -6.6266262531280518e-01 1.0636694729328156e-01</leafValues></_>
        <_>
          <internalNodes>
            0 -1 314 -8.5294218733906746e-03</internalNodes>
          <leafValues>
            -4.6698477864265442e-01 1.2508946657180786e-01</leafValues></_></weakClassifiers></_>
    <!-- stage 11 -->
    <_>
      <maxWeakCount>24</maxWeakCount>
      <stageThreshold>-9.3767052888870239e-01</stageThreshold>
      <weakClassifiers>
        <_>
          <internalNodes>
            0 -1 140 5.3981479257345200e-02</internalNodes>
          <leafValues>
            1.0344827920198441e-01 7.9432624578475952e-01</leafValues></_>
        <_>
          <internalNodes>
            0 -1 3 5.0301263108849525e-03</internalNodes>
          <leafValues>
            2.1332837641239166e-01 -5.9918093681335449e-01</leafValues></_>
        <_>
          <internalNodes>
            0 -1 303 -3.3375144004821777e-02</internalNodes>
          <leafValues>
            5.4102414846420288e-01 -1.9290153682231903e-01</leafValues></_>
        <_>
          <internalNodes>
            0 -1 98 -9.6788220107555389e-03</internalNodes>
          <leafValues>
            5.4326480627059937e-01 -1.8805654346942902e-01</leafValues></_>
        <_>
          <internalNodes>
            0 -1 307 1.9061001017689705e-02</internalNodes>
          <leafValues>
            -1.7610916495323181e-01 5.0762528181076050e-01</leafValues></_>
        <_>
          <internalNodes>
            0 -1 80 -1.6716562211513519e-02</internalNodes>
          <leafValues>
            5.6554955244064331e-01 -1.8499842286109924e-01</leafValues></_>
        <_>
          <internalNodes>
            0 -1 209 1.1403025127947330e-03</internalNodes>
          <leafValues>
            -1.4137800037860870e-01 5.0702059268951416e-01</leafValues></_>
        <_>
          <internalNodes>
            0 -1 202 2.2233119234442711e-03</internalNodes>
          <leafValues>
            -1.6102172434329987e-01 4.2600050568580627e-01</leafValues></_>
        <_>
          <internalNodes>
            0 -1 188 6.5107205882668495e-03</internalNodes>
          <leafValues>
            -1.3418883085250854e-01 5.1841717958450317e-01</leafValues></_>
        <_>
          <internalNodes>
            0 -1 161 1.3950642896816134e-03</internalNodes>
          <leafValues>
            -1.2019797414541245e-01 7.1367818117141724e-01</leafValues></_>
        <_>
          <internalNodes>
            0 -1 325 3.3577801659703255e-03</internalNodes>
          <leafValues>
            1.4218886196613312e-01 -6.1591714620590210e-01</leafValues></_>
        <_>
          <internalNodes>
            0 -1 177 2.9894455801695585e-03</internalNodes>
          <leafValues>
            -1.2519314885139465e-01 7.0121181011199951e-01</leafValues></_>
        <_>
          <internalNodes>
            0 -1 269 9.8094902932643890e-04</internalNodes>
          <leafValues>
            -1.0587924718856812e-01 5.8144927024841309e-01</leafValues></_>
        <_>
          <internalNodes>
            0 -1 281 -3.1712837517261505e-03</internalNodes>
          <leafValues>
            -5.0602388381958008e-01 1.4599904417991638e-01</leafValues></_>
        <_>
          <internalNodes>
            0 -1 163 5.3650876507163048e-03</internalNodes>
          <leafValues>
            -1.4469420909881592e-01 5.5507504940032959e-01</leafValues></_>
        <_>
          <internalNodes>
            0 -1 230 -6.5550785511732101e-03</internalNodes>
          <leafValues>
            4.3778568506240845e-01 -1.2117473781108856e-01</leafValues></_>
        <_>
          <internalNodes>
            0 -1 85 -3.7166455294936895e-03</internalNodes>
          <leafValues>
            4.1501525044441223e-01 -1.7493924498558044e-01</leafValues></_>
        <_>
          <internalNodes>
            0 -1 92 -1.3358598574995995e-02</internalNodes>
          <leafValues>
            4.9883997440338135e-01 -1.2488353997468948e-01</leafValues></_>
        <_>
          <internalNodes>
            0 -1 96 -7.2511238977313042e-03</internalNodes>
          <leafValues>
            5.6584566831588745e-01 -1.2549217045307159e-01</leafValues></_>
        <_>
          <internalNodes>
            0 -1 334 -9.0570915490388870e-03</internalNodes>
          <leafValues>
            -6.5983504056930542e-01 1.2148214876651764e-01</leafValues></_>
        <_>
          <internalNodes>
            0 -1 82 -6.1666071414947510e-03</internalNodes>
          <leafValues>
            4.3350115418434143e-01 -1.6947148740291595e-01</leafValues></_>
        <_>
          <internalNodes>
            0 -1 321 3.5182842984795570e-03</internalNodes>
          <leafValues>
            -2.8351572155952454e-01 2.0617325603961945e-01</leafValues></_>
        <_>
          <internalNodes>
            0 -1 298 -4.5770741999149323e-03</internalNodes>
          <leafValues>
            7.2317242622375488e-01 -9.5948696136474609e-02</leafValues></_>
        <_>
          <internalNodes>
            0 -1 36 -8.6666463175788522e-04</internalNodes>
          <leafValues>
            -5.6040984392166138e-01 1.2600557506084442e-01</leafValues></_></weakClassifiers></_>
    <!-- stage 12 -->
    <_>
      <maxWeakCount>27</maxWeakCount>
      <stageThreshold>-1.1106327772140503e+00</stageThreshold>
      <weakClassifiers>
        <_>
          <internalNodes>
            0 -1 48 -7.7386749908328056e-03</internalNodes>
          <leafValues>
            -4.6368715167045593e-01 4.6170678734779358e-01</leafValues></_>
        <_>
          <internalNodes>
            0 -1 65 4.5254686474800110e-01</internalNodes>
          <leafValues>
            -1.3998366892337799e-01 6.4388781785964966e-01</leafValues></_>
        <_>
          <internalNodes>
            0 -1 50 -1.0097616352140903e-02</internalNodes>
          <leafValues>
            -5.4655259847640991e-01 1.6732166707515717e-01</leafValues></_>
        <_>
          <internalNodes>
            0 -1 296 1.4988817274570465e-02</internalNodes>
          <leafValues>
            -1.8907545506954193e-01 4.4373652338981628e-01</leafValues></_>
        <_>
          <internalNodes>
            0 -1 256 -4.4639469124376774e-03</internalNodes>
          <leafValues>
            6.1731755733489990e-01 -1.3490957021713257e-01</leafValues></_>
        <_>
          <internalNodes>
            0 -1 312 -5.8864806778728962e-03</internalNodes>
          <leafValues>
            -5.8924531936645508e-01 1.2181989103555679e-01</leafValues></_>
        <_>
          <internalNodes>
            0 -1 95 1.0142967104911804e-02</internalNodes>
          <leafValues>
            1.1899470537900925e-01 -6.4211726188659668e-01</leafValues></_>
        <_>
          <internalNodes>
            0 -1 162 2.4256221950054169e-03</internalNodes>
          <leafValues>
            -1.2786051630973816e-01 6.5341818332672119e-01</leafValues></_>
        <_>
          <internalNodes>
            0 -1 70 -1.0086750984191895e-01</internalNodes>
          <leafValues>
            5.8619230985641479e-01 -1.3236296176910400e-01</leafValues></_>
        <_>
          <internalNodes>
            0 -1 8 4.9131155014038086e-02</internalNodes>
          <leafValues>
            -1.0864724218845367e-01 5.7525533437728882e-01</leafValues></_>
        <_>
          <internalNodes>
            0 -1 162 -2.6553866919130087e-03</internalNodes>
          <leafValues>
            6.1939716339111328e-01 -1.0140457004308701e-01</leafValues></_>
        <_>
          <internalNodes>
            0 -1 138 4.3572392314672470e-03</internalNodes>
          <leafValues>
            -1.6939231753349304e-01 3.9732503890991211e-01</leafValues></_>
        <_>
          <internalNodes>
            0 -1 128 -2.1821113303303719e-02</internalNodes>
          <leafValues>
            5.6949722766876221e-01 -1.2200012803077698e-01</leafValues></_>
        <_>
          <internalNodes>
            0 -1 192 5.5826699826866388e-04</internalNodes>
          <leafValues>
            -1.1661175638437271e-01 4.9000662565231323e-01</leafValues></_>
        <_>
          <internalNodes>
            0 -1 12 -7.4850050732493401e-03</internalNodes>
          <leafValues>
            -7.0220351219177246e-01 9.1800302267074585e-02</leafValues></_>
        <_>
          <internalNodes>
            0 -1 108 1.0184311307966709e-02</internalNodes>
          <leafValues>
            -1.4051221311092377e-01 4.0603843331336975e-01</leafValues></_>
        <_>
          <internalNodes>
            0 -1 263 3.7741465494036674e-03</internalNodes>
          <leafValues>
            -1.7263881862163544e-01 3.4503248333930969e-01</leafValues></_>
        <_>
          <internalNodes>
            0 -1 197 -5.0254259258508682e-03</internalNodes>
          <leafValues>
            2.0843775570392609e-01 -2.9911482334136963e-01</leafValues></_>
        <_>
          <internalNodes>
            0 -1 252 -9.5010381191968918e-03</internalNodes>
          <leafValues>
            -5.7738035917282104e-01 1.0295515507459641e-01</leafValues></_>
        <_>
          <internalNodes>
            0 -1 134 -6.9335000589489937e-03</internalNodes>
          <leafValues>
            -4.5824927091598511e-01 1.1931388825178146e-01</leafValues></_>
        <_>
          <internalNodes>
            0 -1 155 -5.4499069228768349e-03</internalNodes>
          <leafValues>
            6.4549273252487183e-01 -9.7741663455963135e-02</leafValues></_>
        <_>
          <internalNodes>
            0 -1 142 -1.4319722540676594e-03</internalNodes>
          <leafValues>
            6.4463019371032715e-01 -8.4036394953727722e-02</leafValues></_>
        <_>
          <internalNodes>
            0 -1 311 -7.0488532073795795e-03</internalNodes>
          <leafValues>
            -4.6839249134063721e-01 1.3729508221149445e-01</leafValues></_>
        <_>
          <internalNodes>
            0 -1 121 -1.0031752754002810e-03</internalNodes>
          <leafValues>
            6.2852358818054199e-01 -9.7225017845630646e-02</leafValues></_>
        <_>
          <internalNodes>
            0 -1 267 1.6754608601331711e-02</internalNodes>
          <leafValues>
            -7.9693146049976349e-02 6.2390929460525513e-01</leafValues></_>
        <_>
          <internalNodes>
            0 -1 152 1.9578407518565655e-03</internalNodes>
          <leafValues>
            -9.5835082232952118e-02 5.6901603937149048e-01</leafValues></_>
        <_>
          <internalNodes>
            0 -1 25 -7.5746932998299599e-03</internalNodes>
          <leafValues>
            -4.7657290101051331e-01 1.2645992636680603e-01</leafValues></_></weakClassifiers></_>
    <!-- stage 13 -->
    <_>
      <maxWeakCount>24</maxWeakCount>
      <stageThreshold>-8.9763844013214111e-01</stageThreshold>
      <weakClassifiers>
        <_>
          <internalNodes>
            0 -1 179 5.8238795027136803e-03</internalNodes>
          <leafValues>
            4.6908551454544067e-01 -4.1854637861251831e-01</leafValues></_>
        <_>
          <internalNodes>
            0 -1 282 1.2677717208862305e-01</internalNodes>
          <leafValues>
            -1.8008780479431152e-01 5.6249427795410156e-01</leafValues></_>
        <_>
          <internalNodes>
            0 -1 64 5.1142200827598572e-03</internalNodes>
          <leafValues>
            1.4431773126125336e-01 -5.9121382236480713e-01</leafValues></_>
        <_>
          <internalNodes>
            0 -1 56 -1.9152569770812988e-01</internalNodes>
          <leafValues>
            6.0602700710296631e-01 -1.2526051700115204e-01</leafValues></_>
        <_>
          <internalNodes>
            0 -1 71 -8.0350507050752640e-03</internalNodes>
          <leafValues>
            -5.3369641304016113e-01 1.4042471349239349e-01</leafValues></_>
        <_>
          <internalNodes>
            0 -1 178 -5.3727421909570694e-03</internalNodes>
          <leafValues>
            -4.9402925372123718e-01 1.1753728985786438e-01</leafValues></_>
        <_>
          <internalNodes>
            0 -1 270 -5.6868167594075203e-03</internalNodes>
          <leafValues>
            7.8681617975234985e-01 -8.8917858898639679e-02</leafValues></_>
        <_>
          <internalNodes>
            0 -1 164 6.2674111686646938e-03</internalNodes>
          <leafValues>
            -1.4488945901393890e-01 5.2575075626373291e-01</leafValues></_>
        <_>
          <internalNodes>
            0 -1 153 -2.4269821587949991e-03</internalNodes>
          <leafValues>
            5.4281115531921387e-01 -1.5000456571578979e-01</leafValues></_>
        <_>
          <internalNodes>
            0 -1 316 -3.4956946037709713e-03</internalNodes>
          <leafValues>
            -4.7556138038635254e-01 1.4067497849464417e-01</leafValues></_>
        <_>
          <internalNodes>
            0 -1 236 -2.6706887874752283e-03</internalNodes>
          <leafValues>
            7.3398619890213013e-01 -8.7004393339157104e-02</leafValues></_>
        <_>
          <internalNodes>
            0 -1 220 -7.3179346509277821e-03</internalNodes>
          <leafValues>
            6.0310584306716919e-01 -1.1122258752584457e-01</leafValues></_>
        <_>
          <internalNodes>
            0 -1 330 -9.6680568531155586e-03</internalNodes>
          <leafValues>
            -5.4832255840301514e-01 1.2240138649940491e-01</leafValues></_>
        <_>
          <internalNodes>
            0 -1 297 1.9692441448569298e-02</internalNodes>
          <leafValues>
            -2.0109063386917114e-01 3.0138158798217773e-01</leafValues></_>
        <_>
          <internalNodes>
            0 -1 242 1.3418639078736305e-02</internalNodes>
          <leafValues>
            -1.6163797676563263e-01 4.0663674473762512e-01</leafValues></_>
        <_>
          <internalNodes>
            0 -1 283 -6.7756935022771358e-03</internalNodes>
          <leafValues>
            6.4352148771286011e-01 -9.3950748443603516e-02</leafValues></_>
        <_>
          <internalNodes>
            0 -1 57 -9.9386712536215782e-03</internalNodes>
          <leafValues>
            3.4156301617622375e-01 -1.6456504166126251e-01</leafValues></_>
        <_>
          <internalNodes>
            0 -1 206 3.1041032634675503e-03</internalNodes>
          <leafValues>
            -1.3610635697841644e-01 4.2458897829055786e-01</leafValues></_>
        <_>
          <internalNodes>
            0 -1 243 -1.1473833583295345e-02</internalNodes>
          <leafValues>
            4.4900193810462952e-01 -1.3508608937263489e-01</leafValues></_>
        <_>
          <internalNodes>
            0 -1 44 -1.8200068734586239e-03</internalNodes>
          <leafValues>
            -3.5834112763404846e-01 1.7800220847129822e-01</leafValues></_>
        <_>
          <internalNodes>
            0 -1 86 5.3989747539162636e-03</internalNodes>
          <leafValues>
            9.3525454401969910e-02 -5.4825383424758911e-01</leafValues></_>
        <_>
          <internalNodes>
            0 -1 286 8.2349982112646103e-03</internalNodes>
          <leafValues>
            -1.2672428786754608e-01 4.8245969414710999e-01</leafValues></_>
        <_>
          <internalNodes>
            0 -1 16 2.2704824805259705e-03</internalNodes>
          <leafValues>
            9.8066747188568115e-02 -6.0803508758544922e-01</leafValues></_>
        <_>
          <internalNodes>
            0 -1 268 2.5874463608488441e-04</internalNodes>
          <leafValues>
            -1.5774311125278473e-01 3.6192119121551514e-01</leafValues></_></weakClassifiers></_>
    <!-- stage 14 -->
    <_>
      <maxWeakCount>26</maxWeakCount>
      <stageThreshold>-8.7172824144363403e-01</stageThreshold>
      <weakClassifiers>
        <_>
          <internalNodes>
            0 -1 262 1.1607183143496513e-02</internalNodes>
          <leafValues>
            4.3945384025573730e-01 -3.8801261782646179e-01</leafValues></_>
        <_>
          <internalNodes>
            0 -1 253 -1.6081918030977249e-02</internalNodes>
          <leafValues>
            3.5368263721466064e-01 -2.0512197911739349e-01</leafValues></_>
        <_>
          <internalNodes>
            0 -1 47 1.3930160552263260e-02</internalNodes>
          <leafValues>
            -1.9723136723041534e-01 3.7708479166030884e-01</leafValues></_>
        <_>
          <internalNodes>
            0 -1 97 -1.0861767455935478e-02</internalNodes>
          <leafValues>
            6.0904127359390259e-01 -1.3550619781017303e-01</leafValues></_>
        <_>
          <internalNodes>
            0 -1 199 1.2419531121850014e-02</internalNodes>
          <leafValues>
            -1.2824422121047974e-01 7.1342515945434570e-01</leafValues></_>
        <_>
          <internalNodes>
            0 -1 109 5.6618288159370422e-02</internalNodes>
          <leafValues>
            -9.1819792985916138e-02 6.5898174047470093e-01</leafValues></_>
        <_>
          <internalNodes>
            0 -1 215 -1.6960237175226212e-02</internalNodes>
          <leafValues>
            -3.2430052757263184e-01 2.0866118371486664e-01</leafValues></_>
        <_>
          <internalNodes>
            0 -1 125 3.6965981125831604e-03</internalNodes>
          <leafValues>
            -2.1688607335090637e-01 3.2179200649261475e-01</leafValues></_>
        <_>
          <internalNodes>
            0 -1 43 -1.3930628076195717e-02</internalNodes>
          <leafValues>
            -5.0599312782287598e-01 1.2310644984245300e-01</leafValues></_>
        <_>
          <internalNodes>
            0 -1 260 -4.9601597711443901e-03</internalNodes>
          <leafValues>
            5.5387240648269653e-01 -1.1196166276931763e-01</leafValues></_>
        <_>
          <internalNodes>
            0 -1 91 -1.3840536586940289e-02</internalNodes>
          <leafValues>
            5.1685422658920288e-01 -9.5034971833229065e-02</leafValues></_>
        <_>
          <internalNodes>
            0 -1 239 1.9412569701671600e-02</internalNodes>
          <leafValues>
            -1.4954741299152374e-01 3.8425743579864502e-01</leafValues></_>
        <_>
          <internalNodes>
            0 -1 66 -2.5693375617265701e-02</internalNodes>
          <leafValues>
            5.0717079639434814e-01 -1.0231396555900574e-01</leafValues></_>
        <_>
          <internalNodes>
            0 -1 180 -6.5242433920502663e-03</internalNodes>
          <leafValues>
            4.7596389055252075e-01 -1.0816299170255661e-01</leafValues></_>
        <_>
          <internalNodes>
            0 -1 285 1.0872599887079559e-05</internalNodes>
          <leafValues>
            -1.9582246243953705e-01 2.8477984666824341e-01</leafValues></_>
        <_>
          <internalNodes>
            0 -1 32 2.3560659028589725e-03</internalNodes>
          <leafValues>
            1.1349750310182571e-01 -5.1907861232757568e-01</leafValues></_>
        <_>
          <internalNodes>
            0 -1 72 -5.7385163381695747e-03</internalNodes>
          <leafValues>
            -6.4023315906524658e-01 7.5724199414253235e-02</leafValues></_>
        <_>
          <internalNodes>
            0 -1 204 8.5225014481693506e-04</internalNodes>
          <leafValues>
            -1.6886536777019501e-01 3.3085253834724426e-01</leafValues></_>
        <_>
          <internalNodes>
            0 -1 103 8.0865658819675446e-03</internalNodes>
          <leafValues>
            -1.8429905176162720e-01 3.0576714873313904e-01</leafValues></_>
        <_>
          <internalNodes>
            0 -1 231 7.6333398465067148e-04</internalNodes>
          <leafValues>
            -1.8226002156734467e-01 3.0138576030731201e-01</leafValues></_>
        <_>
          <internalNodes>
            0 -1 106 -7.9604871571063995e-03</internalNodes>
          <leafValues>
            4.1837200522422791e-01 -1.2616781890392303e-01</leafValues></_>
        <_>
          <internalNodes>
            0 -1 258 1.3047733809798956e-03</internalNodes>
          <leafValues>
            -1.3146394491195679e-01 3.9516088366508484e-01</leafValues></_>
        <_>
          <internalNodes>
            0 -1 116 6.2289219349622726e-03</internalNodes>
          <leafValues>
            1.1234775930643082e-01 -4.9281400442123413e-01</leafValues></_>
        <_>
          <internalNodes>
            0 -1 271 2.4558147415518761e-02</internalNodes>
          <leafValues>
            -9.9567450582981110e-02 5.7479906082153320e-01</leafValues></_>
        <_>
          <internalNodes>
            0 -1 170 -5.6909906561486423e-05</internalNodes>
          <leafValues>
            2.5642585754394531e-01 -2.1610154211521149e-01</leafValues></_>
        <_>
          <internalNodes>
            0 -1 196 -5.3277709521353245e-03</internalNodes>
          <leafValues>
            1.7140087485313416e-01 -3.5736206173896790e-01</leafValues></_></weakClassifiers></_>
    <!-- stage 15 -->
    <_>
      <maxWeakCount>33</maxWeakCount>
      <stageThreshold>-8.9376723766326904e-01</stageThreshold>
      <weakClassifiers>
        <_>
          <internalNodes>
            0 -1 6 -4.7853859141469002e-03</internalNodes>
          <leafValues>
            -4.0127387642860413e-01 4.4005742669105530e-01</leafValues></_>
        <_>
          <internalNodes>
            0 -1 280 1.3148872554302216e-01</internalNodes>
          <leafValues>
            -1.5963596105575562e-01 4.3181416392326355e-01</leafValues></_>
        <_>
          <internalNodes>
            0 -1 99 -1.4046946540474892e-02</internalNodes>
          <leafValues>
            3.8583832979202271e-01 -1.6320560872554779e-01</leafValues></_>
        <_>
          <internalNodes>
            0 -1 9 3.3949636854231358e-03</internalNodes>
          <leafValues>
            1.2954157590866089e-01 -5.2676713466644287e-01</leafValues></_>
        <_>
          <internalNodes>
            0 -1 35 5.0816116854548454e-03</internalNodes>
          <leafValues>
            -3.0035403370857239e-01 1.9725628197193146e-01</leafValues></_>
        <_>
          <internalNodes>
            0 -1 60 -2.1102337166666985e-02</internalNodes>
          <leafValues>
            -5.4559004306793213e-01 1.0263334214687347e-01</leafValues></_>
        <_>
          <internalNodes>
            0 -1 272 -1.6471277922391891e-02</internalNodes>
          <leafValues>
            4.0894663333892822e-01 -1.6252458095550537e-01</leafValues></_>
        <_>
          <internalNodes>
            0 -1 0 -3.2368503510951996e-02</internalNodes>
          <leafValues>
            -6.7420160770416260e-01 7.6728321611881256e-02</leafValues></_>
        <_>
          <internalNodes>
            0 -1 212 1.8118295120075345e-03</internalNodes>
          <leafValues>
            -1.3075987994670868e-01 4.1839605569839478e-01</leafValues></_>
        <_>
          <internalNodes>
            0 -1 218 -7.2425110265612602e-03</internalNodes>
          <leafValues>
            6.5172886848449707e-01 -9.1501511633396149e-02</leafValues></_>
        <_>
          <internalNodes>
            0 -1 130 8.5444148862734437e-04</internalNodes>
          <leafValues>
            -1.2100733071565628e-01 3.5493072867393494e-01</leafValues></_>
        <_>
          <internalNodes>
            0 -1 201 1.8838446121662855e-03</internalNodes>
          <leafValues>
            -1.7851974070072174e-01 2.8225052356719971e-01</leafValues></_>
        <_>
          <internalNodes>
            0 -1 38 -7.5240549631416798e-03</internalNodes>
          <leafValues>
            -7.3697471618652344e-01 6.8725354969501495e-02</leafValues></_>
        <_>
          <internalNodes>
            0 -1 294 -2.1743617951869965e-02</internalNodes>
          <leafValues>
            5.9392917156219482e-01 -9.3495026230812073e-02</leafValues></_>
        <_>
          <internalNodes>
            0 -1 305 7.2582825087010860e-03</internalNodes>
          <leafValues>
            -3.1445863842964172e-01 1.9389821588993073e-01</leafValues></_>
        <_>
          <internalNodes>
            0 -1 11 3.0458040782832541e-06</internalNodes>
          <leafValues>
            -1.9023951888084412e-01 2.7892377972602844e-01</leafValues></_>
        <_>
          <internalNodes>
            0 -1 317 -1.4068413525819778e-02</internalNodes>
          <leafValues>
            -5.4831373691558838e-01 9.6785366535186768e-02</leafValues></_>
        <_>
          <internalNodes>
            0 -1 62 -8.5148969665169716e-03</internalNodes>
          <leafValues>
            2.8578239679336548e-01 -1.8545502424240112e-01</leafValues></_>
        <_>
          <internalNodes>
            0 -1 207 -6.8467832170426846e-04</internalNodes>
          <leafValues>
            3.4478205442428589e-01 -1.3756637275218964e-01</leafValues></_>
        <_>
          <internalNodes>
            0 -1 158 3.5283826291561127e-02</internalNodes>
          <leafValues>
            -8.9439272880554199e-02 5.1333391666412354e-01</leafValues></_>
        <_>
          <internalNodes>
            0 -1 78 3.7572649307549000e-03</internalNodes>
          <leafValues>
            -1.0593591630458832e-01 4.5939815044403076e-01</leafValues></_>
        <_>
          <internalNodes>
            0 -1 214 1.2054741382598877e-03</internalNodes>
          <leafValues>
            -1.3278906047344208e-01 3.9435619115829468e-01</leafValues></_>
        <_>
          <internalNodes>
            0 -1 277 -5.2688457071781158e-03</internalNodes>
          <leafValues>
            6.2820410728454590e-01 -7.8693911433219910e-02</leafValues></_>
        <_>
          <internalNodes>
            0 -1 14 8.9800124987959862e-03</internalNodes>
          <leafValues>
            9.3107253313064575e-02 -6.3299721479415894e-01</leafValues></_>
        <_>
          <internalNodes>
            0 -1 329 2.9970908071845770e-03</internalNodes>
          <leafValues>
            7.9016923904418945e-02 -5.8198034763336182e-01</leafValues></_>
        <_>
          <internalNodes>
            0 -1 166 1.2478318531066179e-03</internalNodes>
          <leafValues>
            -1.1155510693788528e-01 4.5151022076606750e-01</leafValues></_>
        <_>
          <internalNodes>
            0 -1 52 -4.9569178372621536e-03</internalNodes>
          <leafValues>
            3.2850947976112366e-01 -1.4050856232643127e-01</leafValues></_>
        <_>
          <internalNodes>
            0 -1 37 1.8205407541245222e-03</internalNodes>
          <leafValues>
            1.0654376447200775e-01 -4.2526030540466309e-01</leafValues></_>
        <_>
          <internalNodes>
            0 -1 195 -3.2166924938792363e-05</internalNodes>
          <leafValues>
            2.4716337025165558e-01 -1.8634241819381714e-01</leafValues></_>
        <_>
          <internalNodes>
            0 -1 320 2.3682937026023865e-03</internalNodes>
          <leafValues>
            6.9584198296070099e-02 -6.5062224864959717e-01</leafValues></_>
        <_>
          <internalNodes>
            0 -1 322 9.7872060723602772e-04</internalNodes>
          <leafValues>
            -1.5862570703029633e-01 3.2416060566902161e-01</leafValues></_>
        <_>
          <internalNodes>
            0 -1 154 9.5958937890827656e-05</internalNodes>
          <leafValues>
            -2.0351110398769379e-01 2.4694798886775970e-01</leafValues></_>
        <_>
          <internalNodes>
            0 -1 235 3.1241832766681910e-04</internalNodes>
          <leafValues>
            -1.3218702375888824e-01 3.6170771718025208e-01</leafValues></_></weakClassifiers></_>
    <!-- stage 16 -->
    <_>
      <maxWeakCount>33</maxWeakCount>
      <stageThreshold>-8.5302197933197021e-01</stageThreshold>
      <weakClassifiers>
        <_>
          <internalNodes>
            0 -1 301 -1.0752519592642784e-02</internalNodes>
          <leafValues>
            -6.2500000000000000e-01 4.3115437030792236e-01</leafValues></_>
        <_>
          <internalNodes>
            0 -1 28 1.7634576559066772e-01</internalNodes>
          <leafValues>
            -1.1213066428899765e-01 4.3536266684532166e-01</leafValues></_>
        <_>
          <internalNodes>
            0 -1 129 -1.2547092046588659e-03</internalNodes>
          <leafValues>
            4.5295229554176331e-01 -1.4312806725502014e-01</leafValues></_>
        <_>
          <internalNodes>
            0 -1 292 -3.6860553791484563e-06</internalNodes>
          <leafValues>
            -2.6644822955131531e-01 2.1758471429347992e-01</leafValues></_>
        <_>
          <internalNodes>
            0 -1 135 6.0268025845289230e-03</internalNodes>
          <leafValues>
            -1.0614901036024094e-01 5.7917124032974243e-01</leafValues></_>
        <_>
          <internalNodes>
            0 -1 211 -2.0404372364282608e-02</internalNodes>
          <leafValues>
            4.4128409028053284e-01 -1.2181768566370010e-01</leafValues></_>
        <_>
          <internalNodes>
            0 -1 27 -1.7403117381036282e-03</internalNodes>
          <leafValues>
            -6.1934638023376465e-01 8.1777743995189667e-02</leafValues></_>
        <_>
          <internalNodes>
            0 -1 168 3.6552371457219124e-03</internalNodes>
          <leafValues>
            -1.5674698352813721e-01 3.4845870733261108e-01</leafValues></_>
        <_>
          <internalNodes>
            0 -1 266 1.1090951040387154e-02</internalNodes>
          <leafValues>
            -9.5269583165645599e-02 5.2181440591812134e-01</leafValues></_>
        <_>
          <internalNodes>
            0 -1 111 1.3612025650218129e-03</internalNodes>
          <leafValues>
            -8.5252605378627777e-02 5.7287490367889404e-01</leafValues></_>
        <_>
          <internalNodes>
            0 -1 186 -1.8116871360689402e-03</internalNodes>
          <leafValues>
            5.4042851924896240e-01 -7.7785193920135498e-02</leafValues></_>
        <_>
          <internalNodes>
            0 -1 213 1.4682060573250055e-03</internalNodes>
          <leafValues>
            -1.1299991607666016e-01 4.3541538715362549e-01</leafValues></_>
        <_>
          <internalNodes>
            0 -1 276 1.1769153643399477e-03</internalNodes>
          <leafValues>
            -9.0446569025516510e-02 4.9771198630332947e-01</leafValues></_>
        <_>
          <internalNodes>
            0 -1 15 2.1995040588080883e-03</internalNodes>
          <leafValues>
            1.6431702673435211e-01 -3.1975102424621582e-01</leafValues></_>
        <_>
          <internalNodes>
            0 -1 246 -5.4723820649087429e-03</internalNodes>
          <leafValues>
            2.8552860021591187e-01 -1.8181864917278290e-01</leafValues></_>
        <_>
          <internalNodes>
            0 -1 315 -1.5420369803905487e-02</internalNodes>
          <leafValues>
            -7.9414451122283936e-01 7.1571342647075653e-02</leafValues></_>
        <_>
          <internalNodes>
            0 -1 54 -1.1945889890193939e-01</internalNodes>
          <leafValues>
            4.9156263470649719e-01 -1.2028602510690689e-01</leafValues></_>
        <_>
          <internalNodes>
            0 -1 278 -1.0760048404335976e-02</internalNodes>
          <leafValues>
            3.3846470713615417e-01 -1.4000894129276276e-01</leafValues></_>
        <_>
          <internalNodes>
            0 -1 327 1.6178406774997711e-02</internalNodes>
          <leafValues>
            6.5570726990699768e-02 -7.7767157554626465e-01</leafValues></_>
        <_>
          <internalNodes>
            0 -1 190 -2.3941276594996452e-03</internalNodes>
          <leafValues>
            5.0834298133850098e-01 -1.0444137454032898e-01</leafValues></_>
        <_>
          <internalNodes>
            0 -1 169 2.9644374735653400e-03</internalNodes>
          <leafValues>
            -1.5532623231410980e-01 3.1263673305511475e-01</leafValues></_>
        <_>
          <internalNodes>
            0 -1 42 -1.5983043704181910e-03</internalNodes>
          <leafValues>
            -6.2189328670501709e-01 7.9138778150081635e-02</leafValues></_>
        <_>
          <internalNodes>
            0 -1 194 3.5319826565682888e-04</internalNodes>
          <leafValues>
            -1.0263884812593460e-01 4.7276628017425537e-01</leafValues></_>
        <_>
          <internalNodes>
            0 -1 119 6.9154996890574694e-04</internalNodes>
          <leafValues>
            -9.6890881657600403e-02 4.7506448626518250e-01</leafValues></_>
        <_>
          <internalNodes>
            0 -1 265 1.1996489949524403e-02</internalNodes>
          <leafValues>
            -1.9833140075206757e-01 2.4136450886726379e-01</leafValues></_>
        <_>
          <internalNodes>
            0 -1 73 1.0603487491607666e-01</internalNodes>
          <leafValues>
            8.5270196199417114e-02 -5.6131660938262939e-01</leafValues></_>
        <_>
          <internalNodes>
            0 -1 2 1.2993968557566404e-03</internalNodes>
          <leafValues>
            9.0727478265762329e-02 -5.3494846820831299e-01</leafValues></_>
        <_>
          <internalNodes>
            0 -1 118 -3.2193474471569061e-02</internalNodes>
          <leafValues>
            -5.6105369329452515e-01 7.6008424162864685e-02</leafValues></_>
        <_>
          <internalNodes>
            0 -1 293 2.5688945315778255e-03</internalNodes>
          <leafValues>
            -1.4641262590885162e-01 3.2664820551872253e-01</leafValues></_>
        <_>
          <internalNodes>
            0 -1 156 2.8994211461395025e-03</internalNodes>
          <leafValues>
            7.2457887232303619e-02 -6.7161697149276733e-01</leafValues></_>
        <_>
          <internalNodes>
            0 -1 132 -3.9599515730515122e-04</internalNodes>
          <leafValues>
            5.2923399209976196e-01 -1.0180828720331192e-01</leafValues></_>
        <_>
          <internalNodes>
            0 -1 69 -9.1020539402961731e-03</internalNodes>
          <leafValues>
            -7.3618435859680176e-01 6.9014266133308411e-02</leafValues></_>
        <_>
          <internalNodes>
            0 -1 160 -7.9516507685184479e-04</internalNodes>
          <leafValues>
            4.8423370718955994e-01 -1.0292924195528030e-01</leafValues></_></weakClassifiers></_>
    <!-- stage 17 -->
    <_>
      <maxWeakCount>34</maxWeakCount>
      <stageThreshold>-7.9543042182922363e-01</stageThreshold>
      <weakClassifiers>
        <_>
          <internalNodes>
            0 -1 4 4.5017888769507408e-03</internalNodes>
          <leafValues>
            4.0416809916496277e-01 -4.7976878285408020e-01</leafValues></_>
        <_>
          <internalNodes>
            0 -1 191 -3.8946479558944702e-02</internalNodes>
          <leafValues>
            5.1030904054641724e-01 -7.8004091978073120e-02</leafValues></_>
        <_>
          <internalNodes>
            0 -1 51 -2.8548434376716614e-02</internalNodes>
          <leafValues>
            4.4582504034042358e-01 -1.3137340545654297e-01</leafValues></_>
        <_>
          <internalNodes>
            0 -1 74 -1.4666057191789150e-02</internalNodes>
          <leafValues>
            3.7145954370498657e-01 -1.6200900077819824e-01</leafValues></_>
        <_>
          <internalNodes>
            0 -1 255 -1.1409793049097061e-02</internalNodes>
          <leafValues>
            5.0306731462478638e-01 -1.3680106401443481e-01</leafValues></_>
        <_>
          <internalNodes>
            0 -1 304 7.8882128000259399e-03</internalNodes>
          <leafValues>
            -2.6919239759445190e-01 2.6926609873771667e-01</leafValues></_>
        <_>
          <internalNodes>
            0 -1 126 1.3341129757463932e-02</internalNodes>
          <leafValues>
            -2.3374633491039276e-01 2.6195445656776428e-01</leafValues></_>
        <_>
          <internalNodes>
            0 -1 87 1.1221520602703094e-02</internalNodes>
          <leafValues>
            -2.0759114623069763e-01 2.7678626775741577e-01</leafValues></_>
        <_>
          <internalNodes>
            0 -1 40 -1.4571232721209526e-02</internalNodes>
          <leafValues>
            3.2338884472846985e-01 -1.7405463755130768e-01</leafValues></_>
        <_>
          <internalNodes>
            0 -1 181 2.8444491326808929e-03</internalNodes>
          <leafValues>
            -8.8877588510513306e-02 5.1018017530441284e-01</leafValues></_>
        <_>
          <internalNodes>
            0 -1 81 2.0739720202982426e-03</internalNodes>
          <leafValues>
            -1.4970535039901733e-01 3.3765631914138794e-01</leafValues></_>
        <_>
          <internalNodes>
            0 -1 232 1.0158633813261986e-03</internalNodes>
          <leafValues>
            -1.4104990661144257e-01 3.3334103226661682e-01</leafValues></_>
        <_>
          <internalNodes>
            0 -1 58 -2.3923590779304504e-03</internalNodes>
          <leafValues>
            4.8540106415748596e-01 -1.0579770803451538e-01</leafValues></_>
        <_>
          <internalNodes>
            0 -1 7 -4.2833043262362480e-03</internalNodes>
          <leafValues>
            -5.8170348405838013e-01 9.5336943864822388e-02</leafValues></_>
        <_>
          <internalNodes>
            0 -1 112 5.0264666788280010e-04</internalNodes>
          <leafValues>
            -1.4656995236873627e-01 3.5275077819824219e-01</leafValues></_>
        <_>
          <internalNodes>
            0 -1 274 -8.3486586809158325e-03</internalNodes>
          <leafValues>
            2.2619400918483734e-01 -1.9557298719882965e-01</leafValues></_>
        <_>
          <internalNodes>
            0 -1 18 -1.1166873387992382e-02</internalNodes>
          <leafValues>
            -5.0411313772201538e-01 9.1060779988765717e-02</leafValues></_>
        <_>
          <internalNodes>
            0 -1 79 9.2234671115875244e-02</internalNodes>
          <leafValues>
            -4.6305239200592041e-02 9.6608024835586548e-01</leafValues></_>
        <_>
          <internalNodes>
            0 -1 122 9.0512698516249657e-03</internalNodes>
          <leafValues>
            -1.8021224439144135e-01 2.4143995344638824e-01</leafValues></_>
        <_>
          <internalNodes>
            0 -1 299 1.0749059729278088e-02</internalNodes>
          <leafValues>
            -1.6531440615653992e-01 2.9290509223937988e-01</leafValues></_>
        <_>
          <internalNodes>
            0 -1 68 -6.2671159394085407e-03</internalNodes>
          <leafValues>
            3.3732977509498596e-01 -1.3139869272708893e-01</leafValues></_>
        <_>
          <internalNodes>
            0 -1 295 -3.3513117581605911e-02</internalNodes>
          <leafValues>
            3.4157577157020569e-01 -1.4200124144554138e-01</leafValues></_>
        <_>
          <internalNodes>
            0 -1 123 6.6800877451896667e-02</internalNodes>
          <leafValues>
            1.0826452821493149e-01 -4.9650028347969055e-01</leafValues></_>
        <_>
          <internalNodes>
            0 -1 184 6.1439618002623320e-04</internalNodes>
          <leafValues>
            -1.5191194415092468e-01 2.9356056451797485e-01</leafValues></_>
        <_>
          <internalNodes>
            0 -1 88 3.5695288330316544e-02</internalNodes>
          <leafValues>
            -6.0924846678972244e-02 6.9002437591552734e-01</leafValues></_>
        <_>
          <internalNodes>
            0 -1 137 4.1649509221315384e-03</internalNodes>
          <leafValues>
            -1.0791853070259094e-01 3.9796668291091919e-01</leafValues></_>
        <_>
          <internalNodes>
            0 -1 261 8.5660940385423601e-06</internalNodes>
          <leafValues>
            -1.9548818469047546e-01 2.2423198819160461e-01</leafValues></_>
        <_>
          <internalNodes>
            0 -1 219 6.3686742214486003e-04</internalNodes>
          <leafValues>
            -1.5233714878559113e-01 2.7909976243972778e-01</leafValues></_>
        <_>
          <internalNodes>
            0 -1 310 -2.8278806712478399e-03</internalNodes>
          <leafValues>
            -5.5446404218673706e-01 8.0743707716464996e-02</leafValues></_>
        <_>
          <internalNodes>
            0 -1 189 -1.3939619748271070e-05</internalNodes>
          <leafValues>
            2.0498329401016235e-01 -1.9992774724960327e-01</leafValues></_>
        <_>
          <internalNodes>
            0 -1 275 -1.6727385809645057e-04</internalNodes>
          <leafValues>
            2.1650576591491699e-01 -1.8669216334819794e-01</leafValues></_>
        <_>
          <internalNodes>
            0 -1 287 7.9900510172592476e-06</internalNodes>
          <leafValues>
            -1.9559951126575470e-01 2.2762434184551239e-01</leafValues></_>
        <_>
          <internalNodes>
            0 -1 22 -2.3043907713145018e-03</internalNodes>
          <leafValues>
            -4.3017324805259705e-01 1.0943806171417236e-01</leafValues></_>
        <_>
          <internalNodes>
            0 -1 328 6.0041919350624084e-03</internalNodes>
          <leafValues>
            4.4866356998682022e-02 -8.1342977285385132e-01</leafValues></_></weakClassifiers></_></stages>
  <features>
    <_>
      <rects>
        <_>
          0 0 12 42 -1.</_>
        <_>
          4 0 4 42 3.</_></rects>
      <tilted>0</tilted></_>
    <_>
      <rects>
        <_>
          0 0 8 33 -1.</_>
        <_>
          0 11 8 11 3.</_></rects>
      <tilted>0</tilted></_>
    <_>
      <rects>
        <_>
          0 2 2 40 -1.</_>
        <_>
          0 2 1 20 2.</_>
        <_>
          1 22 1 20 2.</_></rects>
      <tilted>0</tilted></_>
    <_>
      <rects>
        <_>
          0 2 32 2 -1.</_>
        <_>
          8 2 16 2 2.</_></rects>
      <tilted>0</tilted></_>
    <_>
      <rects>
        <_>
          0 11 1 24 -1.</_>
        <_>
          0 19 1 8 3.</_></rects>
      <tilted>0</tilted></_>
    <_>
      <rects>
        <_>
          0 15 48 19 -1.</_>
        <_>
          12 15 24 19 2.</_></rects>
      <tilted>0</tilted></_>
    <_>
      <rects>
        <_>
          0 16 2 24 -1.</_>
        <_>
          0 22 2 12 2.</_></rects>
      <tilted>0</tilted></_>
    <_>
      <rects>
        <_>
          0 16 3 16 -1.</_>
        <_>
          0 20 3 8 2.</_></rects>
      <tilted>0</tilted></_>
    <_>
      <rects>
        <_>
          0 16 20 17 -1.</_>
        <_>
          10 16 10 17 2.</_></rects>
      <tilted>0</tilted></_>
    <_>
      <rects>
        <_>
          0 17 2 24 -1.</_>
        <_>
          0 23 2 12 2.</_></rects>
      <tilted>0</tilted></_>
    <_>
      <rects>
        <_>
          0 20 4 28 -1.</_>
        <_>
          0 27 4 14 2.</_></rects>
      <tilted>0</tilted></_>
    <_>
      <rects>
        <_>
          0 34 2 9 -1.</_>
        <_>
          1 34 1 9 2.</_></rects>
      <tilted>0</tilted></_>
    <_>
      <rects>
        <_>
          0 35 12 10 -1.</_>
        <_>
          0 35 6 5 2.</_>
        <_>
          6 40 6 5 2.</_></rects>
      <tilted>0</tilted></_>
    <_>
      <rects>
        <_>
          0 38 8 10 -1.</_>
        <_>
          0 38 4 5 2.</_>
        <_>
          4 43 4 5 2.</_></rects>
      <tilted>0</tilted></_>
    <_>
      <rects>
        <_>
          0 38 18 10 -1.</_>
        <_>
          0 38 9 5 2.</_>
        <_>
          9 43 9 5 2.</_></rects>
      <tilted>0</tilted></_>
    <_>
      <rects>
        <_>
          0 42 43 6 -1.</_>
        <_>
          0 45 43 3 2.</_></rects>
      <tilted>0</tilted></_>
    <_>
      <rects>
        <_>
          1 0 4 12 -1.</_>
        <_>
          1 0 2 6 2.</_>
        <_>
          3 6 2 6 2.</_></rects>
      <tilted>0</tilted></_>
    <_>
      <rects>
        <_>
          1 0 28 1 -1.</_>
        <_>
          8 0 14 1 2.</_></rects>
      <tilted>0</tilted></_>
    <_>
      <rects>
        <_>
          1 1 5 27 -1.</_>
        <_>
          1 10 5 9 3.</_></rects>
      <tilted>0</tilted></_>
    <_>
      <rects>
        <_>
          1 2 46 6 -1.</_>
        <_>
          1 2 23 3 2.</_>
        <_>
          24 5 23 3 2.</_></rects>
      <tilted>0</tilted></_>
    <_>
      <rects>
        <_>
          1 8 44 38 -1.</_>
        <_>
          12 8 22 38 2.</_></rects>
      <tilted>0</tilted></_>
    <_>
      <rects>
        <_>
          1 13 3 9 -1.</_>
        <_>
          1 16 3 3 3.</_></rects>
      <tilted>0</tilted></_>
    <_>
      <rects>
        <_>
          1 14 4 34 -1.</_>
        <_>
          1 14 2 17 2.</_>
        <_>
          3 31 2 17 2.</_></rects>
      <tilted>0</tilted></_>
    <_>
      <rects>
        <_>
          1 18 40 30 -1.</_>
        <_>
          1 33 40 15 2.</_></rects>
      <tilted>0</tilted></_>
    <_>
      <rects>
        <_>
          1 33 18 15 -1.</_>
        <_>
          7 38 6 5 9.</_></rects>
      <tilted>0</tilted></_>
    <_>
      <rects>
        <_>
          1 36 6 12 -1.</_>
        <_>
          3 40 2 4 9.</_></rects>
      <tilted>0</tilted></_>
    <_>
      <rects>
        <_>
          1 42 44 1 -1.</_>
        <_>
          12 42 22 1 2.</_></rects>
      <tilted>0</tilted></_>
    <_>
      <rects>
        <_>
          1 47 14 1 -1.</_>
        <_>
          8 47 7 1 2.</_></rects>
      <tilted>0</tilted></_>
    <_>
      <rects>
        <_>
          2 0 40 48 -1.</_>
        <_>
          2 12 40 24 2.</_></rects>
      <tilted>0</tilted></_>
    <_>
      <rects>
        <_>
          2 4 42 39 -1.</_>
        <_>
          16 17 14 13 9.</_></rects>
      <tilted>0</tilted></_>
    <_>
      <rects>
        <_>
          2 33 8 7 -1.</_>
        <_>
          4 33 4 7 2.</_></rects>
      <tilted>0</tilted></_>
    <_>
      <rects>
        <_>
          2 43 39 1 -1.</_>
        <_>
          15 43 13 1 3.</_></rects>
      <tilted>0</tilted></_>
    <_>
      <rects>
        <_>
          3 0 6 10 -1.</_>
        <_>
          3 0 3 5 2.</_>
        <_>
          6 5 3 5 2.</_></rects>
      <tilted>0</tilted></_>
    <_>
      <rects>
        <_>
          3 3 45 42 -1.</_>
        <_>
          18 17 15 14 9.</_></rects>
      <tilted>0</tilted></_>
    <_>
      <rects>
        <_>
          3 11 45 27 -1.</_>
        <_>
          18 20 15 9 9.</_></rects>
      <tilted>0</tilted></_>
    <_>
      <rects>
        <_>
          3 14 20 19 -1.</_>
        <_>
          8 14 10 19 2.</_></rects>
      <tilted>0</tilted></_>
    <_>
      <rects>
        <_>
          3 23 2 18 -1.</_>
        <_>
          3 23 1 9 2.</_>
        <_>
          4 32 1 9 2.</_></rects>
      <tilted>0</tilted></_>
    <_>
      <rects>
        <_>
          3 23 8 7 -1.</_>
        <_>
          5 23 4 7 2.</_></rects>
      <tilted>0</tilted></_>
    <_>
      <rects>
        <_>
          3 31 8 14 -1.</_>
        <_>
          3 31 4 7 2.</_>
        <_>
          7 38 4 7 2.</_></rects>
      <tilted>0</tilted></_>
    <_>
      <rects>
        <_>
          4 0 38 10 -1.</_>
        <_>
          4 0 19 5 2.</_>
        <_>
          23 5 19 5 2.</_></rects>
      <tilted>0</tilted></_>
    <_>
      <rects>
        <_>
          4 10 16 26 -1.</_>
        <_>
          4 10 8 13 2.</_>
        <_>
          12 23 8 13 2.</_></rects>
      <tilted>0</tilted></_>
    <_>
      <rects>
        <_>
          4 15 16 17 -1.</_>
        <_>
          8 15 8 17 2.</_></rects>
      <tilted>0</tilted></_>
    <_>
      <rects>
        <_>
          4 34 4 4 -1.</_>
        <_>
          5 35 2 4 2.</_></rects>
      <tilted>1</tilted></_>
    <_>
      <rects>
        <_>
          4 40 33 8 -1.</_>
        <_>
          15 40 11 8 3.</_></rects>
      <tilted>0</tilted></_>
    <_>
      <rects>
        <_>
          4 44 24 3 -1.</_>
        <_>
          12 44 8 3 3.</_></rects>
      <tilted>0</tilted></_>
    <_>
      <rects>
        <_>
          5 12 42 24 -1.</_>
        <_>
          19 20 14 8 9.</_></rects>
      <tilted>0</tilted></_>
    <_>
      <rects>
        <_>
          5 15 18 19 -1.</_>
        <_>
          11 15 6 19 3.</_></rects>
      <tilted>0</tilted></_>
    <_>
      <rects>
        <_>
          5 16 16 20 -1.</_>
        <_>
          9 16 8 20 2.</_></rects>
      <tilted>0</tilted></_>
    <_>
      <rects>
        <_>
          5 29 16 3 -1.</_>
        <_>
          9 33 8 3 2.</_></rects>
      <tilted>1</tilted></_>
    <_>
      <rects>
        <_>
          5 35 6 6 -1.</_>
        <_>
          8 35 3 6 2.</_></rects>
      <tilted>0</tilted></_>
    <_>
      <rects>
        <_>
          5 37 24 5 -1.</_>
        <_>
          17 37 12 5 2.</_></rects>
      <tilted>0</tilted></_>
    <_>
      <rects>
        <_>
          6 20 14 18 -1.</_>
        <_>
          6 26 14 6 3.</_></rects>
      <tilted>0</tilted></_>
    <_>
      <rects>
        <_>
          6 26 22 4 -1.</_>
        <_>
          6 26 11 2 2.</_>
        <_>
          17 28 11 2 2.</_></rects>
      <tilted>0</tilted></_>
    <_>
      <rects>
        <_>
          7 0 29 32 -1.</_>
        <_>
          7 16 29 16 2.</_></rects>
      <tilted>0</tilted></_>
    <_>
      <rects>
        <_>
          7 2 27 24 -1.</_>
        <_>
          16 10 9 8 9.</_></rects>
      <tilted>0</tilted></_>
    <_>
      <rects>
        <_>
          7 3 39 42 -1.</_>
        <_>
          20 17 13 14 9.</_></rects>
      <tilted>0</tilted></_>
    <_>
      <rects>
        <_>
          7 11 24 30 -1.</_>
        <_>
          15 21 8 10 9.</_></rects>
      <tilted>0</tilted></_>
    <_>
      <rects>
        <_>
          7 18 11 15 -1.</_>
        <_>
          7 23 11 5 3.</_></rects>
      <tilted>0</tilted></_>
    <_>
      <rects>
        <_>
          7 32 26 2 -1.</_>
        <_>
          7 32 13 1 2.</_>
        <_>
          20 33 13 1 2.</_></rects>
      <tilted>0</tilted></_>
    <_>
      <rects>
        <_>
          8 0 24 8 -1.</_>
        <_>
          16 0 8 8 3.</_></rects>
      <tilted>0</tilted></_>
    <_>
      <rects>
        <_>
          8 0 36 13 -1.</_>
        <_>
          17 0 18 13 2.</_></rects>
      <tilted>0</tilted></_>
    <_>
      <rects>
        <_>
          8 0 24 6 -1.</_>
        <_>
          8 3 24 3 2.</_></rects>
      <tilted>0</tilted></_>
    <_>
      <rects>
        <_>
          8 14 12 28 -1.</_>
        <_>
          14 14 6 28 2.</_></rects>
      <tilted>0</tilted></_>
    <_>
      <rects>
        <_>
          9 0 36 9 -1.</_>
        <_>
          18 9 18 9 2.</_></rects>
      <tilted>1</tilted></_>
    <_>
      <rects>
        <_>
          9 6 27 2 -1.</_>
        <_>
          18 6 9 2 3.</_></rects>
      <tilted>0</tilted></_>
    <_>
      <rects>
        <_>
          9 10 36 27 -1.</_>
        <_>
          21 19 12 9 9.</_></rects>
      <tilted>0</tilted></_>
    <_>
      <rects>
        <_>
          9 13 13 15 -1.</_>
        <_>
          9 18 13 5 3.</_></rects>
      <tilted>0</tilted></_>
    <_>
      <rects>
        <_>
          9 18 12 12 -1.</_>
        <_>
          15 18 6 12 2.</_></rects>
      <tilted>0</tilted></_>
    <_>
      <rects>
        <_>
          9 21 10 12 -1.</_>
        <_>
          9 24 10 6 2.</_></rects>
      <tilted>0</tilted></_>
    <_>
      <rects>
        <_>
          9 28 15 4 -1.</_>
        <_>
          9 28 15 2 2.</_></rects>
      <tilted>1</tilted></_>
    <_>
      <rects>
        <_>
          10 1 27 44 -1.</_>
        <_>
          10 12 27 22 2.</_></rects>
      <tilted>0</tilted></_>
    <_>
      <rects>
        <_>
          10 3 30 4 -1.</_>
        <_>
          20 3 10 4 3.</_></rects>
      <tilted>0</tilted></_>
    <_>
      <rects>
        <_>
          10 6 3 8 -1.</_>
        <_>
          10 6 3 4 2.</_></rects>
      <tilted>1</tilted></_>
    <_>
      <rects>
        <_>
          10 8 28 31 -1.</_>
        <_>
          24 8 14 31 2.</_></rects>
      <tilted>0</tilted></_>
    <_>
      <rects>
        <_>
          10 15 8 15 -1.</_>
        <_>
          10 20 8 5 3.</_></rects>
      <tilted>0</tilted></_>
    <_>
      <rects>
        <_>
          10 15 18 9 -1.</_>
        <_>
          7 18 18 3 3.</_></rects>
      <tilted>1</tilted></_>
    <_>
      <rects>
        <_>
          10 20 15 9 -1.</_>
        <_>
          15 20 5 9 3.</_></rects>
      <tilted>0</tilted></_>
    <_>
      <rects>
        <_>
          11 3 5 8 -1.</_>
        <_>
          9 5 5 4 2.</_></rects>
      <tilted>1</tilted></_>
    <_>
      <rects>
        <_>
          11 10 4 22 -1.</_>
        <_>
          11 10 2 11 2.</_>
        <_>
          13 21 2 11 2.</_></rects>
      <tilted>0</tilted></_>
    <_>
      <rects>
        <_>
          11 10 15 9 -1.</_>
        <_>
          16 13 5 3 9.</_></rects>
      <tilted>0</tilted></_>
    <_>
      <rects>
        <_>
          11 15 26 10 -1.</_>
        <_>
          11 15 13 5 2.</_>
        <_>
          24 20 13 5 2.</_></rects>
      <tilted>0</tilted></_>
    <_>
      <rects>
        <_>
          12 11 4 26 -1.</_>
        <_>
          12 11 2 13 2.</_>
        <_>
          14 24 2 13 2.</_></rects>
      <tilted>0</tilted></_>
    <_>
      <rects>
        <_>
          12 18 24 2 -1.</_>
        <_>
          24 18 12 2 2.</_></rects>
      <tilted>0</tilted></_>
    <_>
      <rects>
        <_>
          12 20 31 26 -1.</_>
        <_>
          12 33 31 13 2.</_></rects>
      <tilted>0</tilted></_>
    <_>
      <rects>
        <_>
          12 24 24 6 -1.</_>
        <_>
          12 24 12 3 2.</_>
        <_>
          24 27 12 3 2.</_></rects>
      <tilted>0</tilted></_>
    <_>
      <rects>
        <_>
          12 31 19 4 -1.</_>
        <_>
          12 33 19 2 2.</_></rects>
      <tilted>0</tilted></_>
    <_>
      <rects>
        <_>
          13 5 8 13 -1.</_>
        <_>
          15 7 4 13 2.</_></rects>
      <tilted>1</tilted></_>
    <_>
      <rects>
        <_>
          13 14 14 12 -1.</_>
        <_>
          9 18 14 4 3.</_></rects>
      <tilted>1</tilted></_>
    <_>
      <rects>
        <_>
          13 21 12 4 -1.</_>
        <_>
          13 21 6 4 2.</_></rects>
      <tilted>1</tilted></_>
    <_>
      <rects>
        <_>
          13 23 22 10 -1.</_>
        <_>
          13 23 11 5 2.</_>
        <_>
          24 28 11 5 2.</_></rects>
      <tilted>0</tilted></_>
    <_>
      <rects>
        <_>
          13 26 21 14 -1.</_>
        <_>
          13 33 21 7 2.</_></rects>
      <tilted>0</tilted></_>
    <_>
      <rects>
        <_>
          13 29 20 6 -1.</_>
        <_>
          13 29 10 3 2.</_>
        <_>
          23 32 10 3 2.</_></rects>
      <tilted>0</tilted></_>
    <_>
      <rects>
        <_>
          14 19 5 18 -1.</_>
        <_>
          14 25 5 6 3.</_></rects>
      <tilted>0</tilted></_>
    <_>
      <rects>
        <_>
          14 20 12 8 -1.</_>
        <_>
          12 22 12 4 2.</_></rects>
      <tilted>1</tilted></_>
    <_>
      <rects>
        <_>
          14 40 5 2 -1.</_>
        <_>
          14 40 5 1 2.</_></rects>
      <tilted>1</tilted></_>
    <_>
      <rects>
        <_>
          15 0 32 8 -1.</_>
        <_>
          15 0 16 4 2.</_>
        <_>
          31 4 16 4 2.</_></rects>
      <tilted>0</tilted></_>
    <_>
      <rects>
        <_>
          15 12 3 15 -1.</_>
        <_>
          15 17 3 5 3.</_></rects>
      <tilted>0</tilted></_>
    <_>
      <rects>
        <_>
          15 14 2 18 -1.</_>
        <_>
          15 20 2 6 3.</_></rects>
      <tilted>0</tilted></_>
    <_>
      <rects>
        <_>
          15 14 2 21 -1.</_>
        <_>
          15 21 2 7 3.</_></rects>
      <tilted>0</tilted></_>
    <_>
      <rects>
        <_>
          15 14 6 24 -1.</_>
        <_>
          15 20 6 12 2.</_></rects>
      <tilted>0</tilted></_>
    <_>
      <rects>
        <_>
          15 22 3 7 -1.</_>
        <_>
          16 22 1 7 3.</_></rects>
      <tilted>0</tilted></_>
    <_>
      <rects>
        <_>
          15 23 10 12 -1.</_>
        <_>
          15 23 5 6 2.</_>
        <_>
          20 29 5 6 2.</_></rects>
      <tilted>0</tilted></_>
    <_>
      <rects>
        <_>
          16 0 23 34 -1.</_>
        <_>
          16 17 23 17 2.</_></rects>
      <tilted>0</tilted></_>
    <_>
      <rects>
        <_>
          16 10 8 13 -1.</_>
        <_>
          18 12 4 13 2.</_></rects>
      <tilted>1</tilted></_>
    <_>
      <rects>
        <_>
          16 11 6 11 -1.</_>
        <_>
          18 13 2 11 3.</_></rects>
      <tilted>1</tilted></_>
    <_>
      <rects>
        <_>
          16 20 12 6 -1.</_>
        <_>
          16 20 12 3 2.</_></rects>
      <tilted>1</tilted></_>
    <_>
      <rects>
        <_>
          16 24 6 12 -1.</_>
        <_>
          16 24 3 6 2.</_>
        <_>
          19 30 3 6 2.</_></rects>
      <tilted>0</tilted></_>
    <_>
      <rects>
        <_>
          17 8 9 13 -1.</_>
        <_>
          20 11 3 13 3.</_></rects>
      <tilted>1</tilted></_>
    <_>
      <rects>
        <_>
          17 11 6 12 -1.</_>
        <_>
          19 13 2 12 3.</_></rects>
      <tilted>1</tilted></_>
    <_>
      <rects>
        <_>
          17 12 16 24 -1.</_>
        <_>
          17 12 8 12 2.</_>
        <_>
          25 24 8 12 2.</_></rects>
      <tilted>0</tilted></_>
    <_>
      <rects>
        <_>
          17 22 3 1 -1.</_>
        <_>
          18 22 1 1 3.</_></rects>
      <tilted>0</tilted></_>
    <_>
      <rects>
        <_>
          17 22 4 2 -1.</_>
        <_>
          18 22 2 2 2.</_></rects>
      <tilted>0</tilted></_>
    <_>
      <rects>
        <_>
          17 23 3 3 -1.</_>
        <_>
          18 23 1 3 3.</_></rects>
      <tilted>0</tilted></_>
    <_>
      <rects>
        <_>
          17 23 12 4 -1.</_>
        <_>
          17 23 6 2 2.</_>
        <_>
          23 25 6 2 2.</_></rects>
      <tilted>0</tilted></_>
    <_>
      <rects>
        <_>
          17 25 4 2 -1.</_>
        <_>
          18 25 2 2 2.</_></rects>
      <tilted>0</tilted></_>
    <_>
      <rects>
        <_>
          17 26 6 8 -1.</_>
        <_>
          17 26 3 4 2.</_>
        <_>
          20 30 3 4 2.</_></rects>
      <tilted>0</tilted></_>
    <_>
      <rects>
        <_>
          18 1 2 18 -1.</_>
        <_>
          12 7 2 6 3.</_></rects>
      <tilted>1</tilted></_>
    <_>
      <rects>
        <_>
          18 6 27 9 -1.</_>
        <_>
          27 15 9 9 3.</_></rects>
      <tilted>1</tilted></_>
    <_>
      <rects>
        <_>
          18 11 15 35 -1.</_>
        <_>
          23 11 5 35 3.</_></rects>
      <tilted>0</tilted></_>
    <_>
      <rects>
        <_>
          18 19 2 3 -1.</_>
        <_>
          18 20 2 1 3.</_></rects>
      <tilted>0</tilted></_>
    <_>
      <rects>
        <_>
          18 25 3 2 -1.</_>
        <_>
          19 25 1 2 3.</_></rects>
      <tilted>0</tilted></_>
    <_>
      <rects>
        <_>
          18 26 3 2 -1.</_>
        <_>
          19 26 1 2 3.</_></rects>
      <tilted>0</tilted></_>
    <_>
      <rects>
        <_>
          19 0 23 9 -1.</_>
        <_>
          16 3 23 3 3.</_></rects>
      <tilted>1</tilted></_>
    <_>
      <rects>
        <_>
          19 2 20 44 -1.</_>
        <_>
          24 2 10 44 2.</_></rects>
      <tilted>0</tilted></_>
    <_>
      <rects>
        <_>
          19 5 9 15 -1.</_>
        <_>
          22 8 3 15 3.</_></rects>
      <tilted>1</tilted></_>
    <_>
      <rects>
        <_>
          19 19 6 10 -1.</_>
        <_>
          21 19 2 10 3.</_></rects>
      <tilted>0</tilted></_>
    <_>
      <rects>
        <_>
          19 19 20 20 -1.</_>
        <_>
          19 19 10 10 2.</_>
        <_>
          29 29 10 10 2.</_></rects>
      <tilted>0</tilted></_>
    <_>
      <rects>
        <_>
          19 20 6 1 -1.</_>
        <_>
          21 20 2 1 3.</_></rects>
      <tilted>0</tilted></_>
    <_>
      <rects>
        <_>
          19 20 8 10 -1.</_>
        <_>
          19 25 8 5 2.</_></rects>
      <tilted>0</tilted></_>
    <_>
      <rects>
        <_>
          19 21 2 8 -1.</_>
        <_>
          19 21 1 4 2.</_>
        <_>
          20 25 1 4 2.</_></rects>
      <tilted>0</tilted></_>
    <_>
      <rects>
        <_>
          19 22 3 2 -1.</_>
        <_>
          20 23 1 2 3.</_></rects>
      <tilted>1</tilted></_>
    <_>
      <rects>
        <_>
          19 24 12 6 -1.</_>
        <_>
          19 24 6 3 2.</_>
        <_>
          25 27 6 3 2.</_></rects>
      <tilted>0</tilted></_>
    <_>
      <rects>
        <_>
          19 28 2 2 -1.</_>
        <_>
          19 28 1 1 2.</_>
        <_>
          20 29 1 1 2.</_></rects>
      <tilted>0</tilted></_>
    <_>
      <rects>
        <_>
          19 33 27 15 -1.</_>
        <_>
          28 38 9 5 9.</_></rects>
      <tilted>0</tilted></_>
    <_>
      <rects>
        <_>
          20 6 20 7 -1.</_>
        <_>
          25 6 10 7 2.</_></rects>
      <tilted>0</tilted></_>
    <_>
      <rects>
        <_>
          20 11 3 12 -1.</_>
        <_>
          21 12 1 12 3.</_></rects>
      <tilted>1</tilted></_>
    <_>
      <rects>
        <_>
          20 18 3 4 -1.</_>
        <_>
          21 19 1 4 3.</_></rects>
      <tilted>1</tilted></_>
    <_>
      <rects>
        <_>
          20 21 9 3 -1.</_>
        <_>
          19 22 9 1 3.</_></rects>
      <tilted>1</tilted></_>
    <_>
      <rects>
        <_>
          20 24 7 6 -1.</_>
        <_>
          20 26 7 2 3.</_></rects>
      <tilted>0</tilted></_>
    <_>
      <rects>
        <_>
          20 25 6 1 -1.</_>
        <_>
          22 25 2 1 3.</_></rects>
      <tilted>0</tilted></_>
    <_>
      <rects>
        <_>
          21 7 6 33 -1.</_>
        <_>
          21 18 6 11 3.</_></rects>
      <tilted>0</tilted></_>
    <_>
      <rects>
        <_>
          21 13 4 16 -1.</_>
        <_>
          21 17 4 8 2.</_></rects>
      <tilted>0</tilted></_>
    <_>
      <rects>
        <_>
          21 16 2 4 -1.</_>
        <_>
          21 17 2 2 2.</_></rects>
      <tilted>0</tilted></_>
    <_>
      <rects>
        <_>
          21 16 17 28 -1.</_>
        <_>
          21 30 17 14 2.</_></rects>
      <tilted>0</tilted></_>
    <_>
      <rects>
        <_>
          21 17 6 9 -1.</_>
        <_>
          23 20 2 3 9.</_></rects>
      <tilted>0</tilted></_>
    <_>
      <rects>
        <_>
          21 20 4 3 -1.</_>
        <_>
          22 20 2 3 2.</_></rects>
      <tilted>0</tilted></_>
    <_>
      <rects>
        <_>
          21 20 9 3 -1.</_>
        <_>
          20 21 9 1 3.</_></rects>
      <tilted>1</tilted></_>
    <_>
      <rects>
        <_>
          21 20 26 18 -1.</_>
        <_>
          21 20 13 9 2.</_>
        <_>
          34 29 13 9 2.</_></rects>
      <tilted>0</tilted></_>
    <_>
      <rects>
        <_>
          21 22 3 3 -1.</_>
        <_>
          22 23 1 1 9.</_></rects>
      <tilted>0</tilted></_>
    <_>
      <rects>
        <_>
          21 22 6 9 -1.</_>
        <_>
          23 25 2 3 9.</_></rects>
      <tilted>0</tilted></_>
    <_>
      <rects>
        <_>
          21 23 2 8 -1.</_>
        <_>
          21 25 2 4 2.</_></rects>
      <tilted>0</tilted></_>
    <_>
      <rects>
        <_>
          21 24 3 3 -1.</_>
        <_>
          22 25 1 1 9.</_></rects>
      <tilted>0</tilted></_>
    <_>
      <rects>
        <_>
          21 26 2 3 -1.</_>
        <_>
          20 27 2 1 3.</_></rects>
      <tilted>1</tilted></_>
    <_>
      <rects>
        <_>
          21 27 2 4 -1.</_>
        <_>
          21 29 2 2 2.</_></rects>
      <tilted>0</tilted></_>
    <_>
      <rects>
        <_>
          21 27 4 3 -1.</_>
        <_>
          21 28 4 1 3.</_></rects>
      <tilted>0</tilted></_>
    <_>
      <rects>
        <_>
          21 28 3 6 -1.</_>
        <_>
          21 30 3 2 3.</_></rects>
      <tilted>0</tilted></_>
    <_>
      <rects>
        <_>
          22 2 3 11 -1.</_>
        <_>
          23 3 1 11 3.</_></rects>
      <tilted>1</tilted></_>
    <_>
      <rects>
        <_>
          22 9 4 30 -1.</_>
        <_>
          22 19 4 10 3.</_></rects>
      <tilted>0</tilted></_>
    <_>
      <rects>
        <_>
          22 14 14 18 -1.</_>
        <_>
          22 14 7 9 2.</_>
        <_>
          29 23 7 9 2.</_></rects>
      <tilted>0</tilted></_>
    <_>
      <rects>
        <_>
          22 16 2 16 -1.</_>
        <_>
          22 20 2 8 2.</_></rects>
      <tilted>0</tilted></_>
    <_>
      <rects>
        <_>
          22 17 1 4 -1.</_>
        <_>
          22 18 1 2 2.</_></rects>
      <tilted>0</tilted></_>
    <_>
      <rects>
        <_>
          22 17 1 4 -1.</_>
        <_>
          22 19 1 2 2.</_></rects>
      <tilted>0</tilted></_>
    <_>
      <rects>
        <_>
          22 17 3 3 -1.</_>
        <_>
          23 18 1 3 3.</_></rects>
      <tilted>1</tilted></_>
    <_>
      <rects>
        <_>
          22 17 4 12 -1.</_>
        <_>
          22 17 2 6 2.</_>
        <_>
          24 23 2 6 2.</_></rects>
      <tilted>0</tilted></_>
    <_>
      <rects>
        <_>
          22 18 3 6 -1.</_>
        <_>
          23 20 1 2 9.</_></rects>
      <tilted>0</tilted></_>
    <_>
      <rects>
        <_>
          22 18 4 10 -1.</_>
        <_>
          22 18 2 5 2.</_>
        <_>
          24 23 2 5 2.</_></rects>
      <tilted>0</tilted></_>
    <_>
      <rects>
        <_>
          22 18 3 2 -1.</_>
        <_>
          22 19 3 1 2.</_></rects>
      <tilted>0</tilted></_>
    <_>
      <rects>
        <_>
          22 19 4 1 -1.</_>
        <_>
          23 20 2 1 2.</_></rects>
      <tilted>1</tilted></_>
    <_>
      <rects>
        <_>
          22 19 4 20 -1.</_>
        <_>
          22 19 2 10 2.</_>
        <_>
          24 29 2 10 2.</_></rects>
      <tilted>0</tilted></_>
    <_>
      <rects>
        <_>
          22 19 8 4 -1.</_>
        <_>
          21 20 8 2 2.</_></rects>
      <tilted>1</tilted></_>
    <_>
      <rects>
        <_>
          22 20 12 7 -1.</_>
        <_>
          25 20 6 7 2.</_></rects>
      <tilted>0</tilted></_>
    <_>
      <rects>
        <_>
          22 20 8 20 -1.</_>
        <_>
          22 25 8 10 2.</_></rects>
      <tilted>0</tilted></_>
    <_>
      <rects>
        <_>
          22 21 4 8 -1.</_>
        <_>
          22 21 2 4 2.</_>
        <_>
          24 25 2 4 2.</_></rects>
      <tilted>0</tilted></_>
    <_>
      <rects>
        <_>
          22 22 2 6 -1.</_>
        <_>
          22 24 2 2 3.</_></rects>
      <tilted>0</tilted></_>
    <_>
      <rects>
        <_>
          22 24 3 3 -1.</_>
        <_>
          21 25 3 1 3.</_></rects>
      <tilted>1</tilted></_>
    <_>
      <rects>
        <_>
          22 25 6 2 -1.</_>
        <_>
          24 25 2 2 3.</_></rects>
      <tilted>0</tilted></_>
    <_>
      <rects>
        <_>
          22 25 4 6 -1.</_>
        <_>
          22 28 4 3 2.</_></rects>
      <tilted>0</tilted></_>
    <_>
      <rects>
        <_>
          22 27 4 4 -1.</_>
        <_>
          22 27 2 2 2.</_>
        <_>
          24 29 2 2 2.</_></rects>
      <tilted>0</tilted></_>
    <_>
      <rects>
        <_>
          22 31 8 9 -1.</_>
        <_>
          19 34 8 3 3.</_></rects>
      <tilted>1</tilted></_>
    <_>
      <rects>
        <_>
          22 40 18 8 -1.</_>
        <_>
          22 40 9 4 2.</_>
        <_>
          31 44 9 4 2.</_></rects>
      <tilted>0</tilted></_>
    <_>
      <rects>
        <_>
          23 9 4 20 -1.</_>
        <_>
          23 9 2 10 2.</_>
        <_>
          25 19 2 10 2.</_></rects>
      <tilted>0</tilted></_>
    <_>
      <rects>
        <_>
          23 17 3 4 -1.</_>
        <_>
          24 18 1 4 3.</_></rects>
      <tilted>1</tilted></_>
    <_>
      <rects>
        <_>
          23 17 2 9 -1.</_>
        <_>
          23 20 2 3 3.</_></rects>
      <tilted>0</tilted></_>
    <_>
      <rects>
        <_>
          23 18 1 6 -1.</_>
        <_>
          23 20 1 2 3.</_></rects>
      <tilted>0</tilted></_>
    <_>
      <rects>
        <_>
          23 18 4 5 -1.</_>
        <_>
          24 18 2 5 2.</_></rects>
      <tilted>0</tilted></_>
    <_>
      <rects>
        <_>
          23 18 20 11 -1.</_>
        <_>
          33 18 10 11 2.</_></rects>
      <tilted>0</tilted></_>
    <_>
      <rects>
        <_>
          23 20 1 6 -1.</_>
        <_>
          23 22 1 2 3.</_></rects>
      <tilted>0</tilted></_>
    <_>
      <rects>
        <_>
          23 20 2 8 -1.</_>
        <_>
          23 20 1 4 2.</_>
        <_>
          24 24 1 4 2.</_></rects>
      <tilted>0</tilted></_>
    <_>
      <rects>
        <_>
          23 20 2 12 -1.</_>
        <_>
          23 24 2 4 3.</_></rects>
      <tilted>0</tilted></_>
    <_>
      <rects>
        <_>
          23 22 1 2 -1.</_>
        <_>
          23 23 1 1 2.</_></rects>
      <tilted>0</tilted></_>
    <_>
      <rects>
        <_>
          23 22 1 6 -1.</_>
        <_>
          23 24 1 2 3.</_></rects>
      <tilted>0</tilted></_>
    <_>
      <rects>
        <_>
          23 24 13 15 -1.</_>
        <_>
          23 29 13 5 3.</_></rects>
      <tilted>0</tilted></_>
    <_>
      <rects>
        <_>
          23 25 4 1 -1.</_>
        <_>
          24 25 2 1 2.</_></rects>
      <tilted>0</tilted></_>
    <_>
      <rects>
        <_>
          23 27 2 6 -1.</_>
        <_>
          23 29 2 2 3.</_></rects>
      <tilted>0</tilted></_>
    <_>
      <rects>
        <_>
          23 29 1 3 -1.</_>
        <_>
          23 30 1 1 3.</_></rects>
      <tilted>0</tilted></_>
    <_>
      <rects>
        <_>
          23 42 4 4 -1.</_>
        <_>
          23 44 4 2 2.</_></rects>
      <tilted>0</tilted></_>
    <_>
      <rects>
        <_>
          24 2 18 30 -1.</_>
        <_>
          24 2 9 15 2.</_>
        <_>
          33 17 9 15 2.</_></rects>
      <tilted>0</tilted></_>
    <_>
      <rects>
        <_>
          24 4 24 32 -1.</_>
        <_>
          30 4 12 32 2.</_></rects>
      <tilted>0</tilted></_>
    <_>
      <rects>
        <_>
          24 13 24 20 -1.</_>
        <_>
          32 13 8 20 3.</_></rects>
      <tilted>0</tilted></_>
    <_>
      <rects>
        <_>
          24 15 16 1 -1.</_>
        <_>
          28 19 8 1 2.</_></rects>
      <tilted>1</tilted></_>
    <_>
      <rects>
        <_>
